digraph Tree {
node [shape=box, fontname="helvetica"] ;
edge [fontname="helvetica"] ;
0 [label="Variação_Ct_Total_Q4_Q1 <= 0.487\ngini = 0.281\nsamples = 4499\nvalue = [1199, 5889]"] ;
1 [label="Saldo_Total_Rotativo <= 941.5\ngini = 0.496\nsamples = 582\nvalue = [504, 422]"] ;
0 -> 1 [labeldistance=2.5, labelangle=45, headlabel="True"] ;
2 [label="Valor_Total_Transação <= 3193.0\ngini = 0.322\nsamples = 300\nvalue = [384, 97]"] ;
1 -> 2 ;
3 [label="Limite_Disponível <= 2113.5\ngini = 0.278\nsamples = 268\nvalue = [360, 72]"] ;
2 -> 3 ;
4 [label="Nº_total_de_produtos <= 5.5\ngini = 0.117\nsamples = 97\nvalue = [151, 10]"] ;
3 -> 4 ;
5 [label="Contagem_Total_de_Transações <= 56.5\ngini = 0.078\nsamples = 86\nvalue = [141, 6]"] ;
4 -> 5 ;
6 [label="Numero_de_Dependentes <= 1.5\ngini = 0.066\nsamples = 85\nvalue = [141, 5]"] ;
5 -> 6 ;
7 [label="Período_de_relacionamento_com_o_banco <= 19.5\ngini = 0.224\nsamples = 29\nvalue = [34, 5]"] ;
6 -> 7 ;
8 [label="gini = 0.0\nsamples = 1\nvalue = [0, 1]"] ;
7 -> 8 ;
9 [label="Idade_do_Cliente <= 58.5\ngini = 0.188\nsamples = 28\nvalue = [34, 4]"] ;
7 -> 9 ;
10 [label="Nº_total_de_produtos <= 4.5\ngini = 0.069\nsamples = 20\nvalue = [27, 1]"] ;
9 -> 10 ;
11 [label="gini = 0.0\nsamples = 16\nvalue = [24, 0]"] ;
10 -> 11 ;
12 [label="Contagem_Total_de_Transações <= 48.0\ngini = 0.375\nsamples = 4\nvalue = [3, 1]"] ;
10 -> 12 ;
13 [label="gini = 0.0\nsamples = 3\nvalue = [3, 0]"] ;
12 -> 13 ;
14 [label="gini = 0.0\nsamples = 1\nvalue = [0, 1]"] ;
12 -> 14 ;
15 [label="Limite_de_Crédito <= 1551.65\ngini = 0.42\nsamples = 8\nvalue = [7, 3]"] ;
9 -> 15 ;
16 [label="Período_de_relacionamento_com_o_banco <= 45.0\ngini = 0.48\nsamples = 4\nvalue = [2, 3]"] ;
15 -> 16 ;
17 [label="Variação_Ct_Total_Q4_Q1 <= 0.403\ngini = 0.444\nsamples = 2\nvalue = [2, 1]"] ;
16 -> 17 ;
18 [label="gini = 0.0\nsamples = 1\nvalue = [0, 1]"] ;
17 -> 18 ;
19 [label="gini = 0.0\nsamples = 1\nvalue = [2, 0]"] ;
17 -> 19 ;
20 [label="gini = 0.0\nsamples = 2\nvalue = [0, 2]"] ;
16 -> 20 ;
21 [label="gini = 0.0\nsamples = 4\nvalue = [5, 0]"] ;
15 -> 21 ;
22 [label="gini = 0.0\nsamples = 56\nvalue = [107, 0]"] ;
6 -> 22 ;
23 [label="gini = 0.0\nsamples = 1\nvalue = [0, 1]"] ;
5 -> 23 ;
24 [label="Renda_anual <= 2.0\ngini = 0.408\nsamples = 11\nvalue = [10, 4]"] ;
4 -> 24 ;
25 [label="Taxa_média_de_utilização_do_cartão <= 0.059\ngini = 0.375\nsamples = 4\nvalue = [1, 3]"] ;
24 -> 25 ;
26 [label="gini = 0.0\nsamples = 2\nvalue = [0, 2]"] ;
25 -> 26 ;
27 [label="Taxa_média_de_utilização_do_cartão <= 0.226\ngini = 0.5\nsamples = 2\nvalue = [1, 1]"] ;
25 -> 27 ;
28 [label="gini = 0.0\nsamples = 1\nvalue = [1, 0]"] ;
27 -> 28 ;
29 [label="gini = 0.0\nsamples = 1\nvalue = [0, 1]"] ;
27 -> 29 ;
30 [label="Limite_Disponível <= 1491.15\ngini = 0.18\nsamples = 7\nvalue = [9, 1]"] ;
24 -> 30 ;
31 [label="Gênero <= 0.5\ngini = 0.32\nsamples = 4\nvalue = [4, 1]"] ;
30 -> 31 ;
32 [label="gini = 0.0\nsamples = 1\nvalue = [0, 1]"] ;
31 -> 32 ;
33 [label="gini = 0.0\nsamples = 3\nvalue = [4, 0]"] ;
31 -> 33 ;
34 [label="gini = 0.0\nsamples = 3\nvalue = [5, 0]"] ;
30 -> 34 ;
35 [label="Nº_total_de_produtos <= 2.5\ngini = 0.353\nsamples = 171\nvalue = [209, 62]"] ;
3 -> 35 ;
36 [label="gini = 0.0\nsamples = 50\nvalue = [80, 0]"] ;
35 -> 36 ;
37 [label="Taxa_média_de_utilização_do_cartão <= 0.031\ngini = 0.438\nsamples = 121\nvalue = [129, 62]"] ;
35 -> 37 ;
38 [label="Variação_Ct_Total_Q4_Q1 <= 0.324\ngini = 0.386\nsamples = 99\nvalue = [116, 41]"] ;
37 -> 38 ;
39 [label="Renda_anual <= 0.5\ngini = 0.176\nsamples = 25\nvalue = [37, 4]"] ;
38 -> 39 ;
40 [label="Idade_do_Cliente <= 48.0\ngini = 0.48\nsamples = 4\nvalue = [3, 2]"] ;
39 -> 40 ;
41 [label="gini = 0.0\nsamples = 2\nvalue = [2, 0]"] ;
40 -> 41 ;
42 [label="Valor_Total_Transação <= 1700.0\ngini = 0.444\nsamples = 2\nvalue = [1, 2]"] ;
40 -> 42 ;
43 [label="gini = 0.0\nsamples = 1\nvalue = [0, 2]"] ;
42 -> 43 ;
44 [label="gini = 0.0\nsamples = 1\nvalue = [1, 0]"] ;
42 -> 44 ;
45 [label="Contagem_Total_de_Transações <= 43.0\ngini = 0.105\nsamples = 21\nvalue = [34, 2]"] ;
39 -> 45 ;
46 [label="Valor_Total_Transação <= 1475.0\ngini = 0.061\nsamples = 17\nvalue = [31, 1]"] ;
45 -> 46 ;
47 [label="Nível_de_Educação <= 1.0\ngini = 0.165\nsamples = 8\nvalue = [10, 1]"] ;
46 -> 47 ;
48 [label="gini = 0.0\nsamples = 1\nvalue = [0, 1]"] ;
47 -> 48 ;
49 [label="gini = 0.0\nsamples = 7\nvalue = [10, 0]"] ;
47 -> 49 ;
50 [label="gini = 0.0\nsamples = 9\nvalue = [21, 0]"] ;
46 -> 50 ;
51 [label="Período_de_relacionamento_com_o_banco <= 35.0\ngini = 0.375\nsamples = 4\nvalue = [3, 1]"] ;
45 -> 51 ;
52 [label="gini = 0.0\nsamples = 1\nvalue = [0, 1]"] ;
51 -> 52 ;
53 [label="gini = 0.0\nsamples = 3\nvalue = [3, 0]"] ;
51 -> 53 ;
54 [label="Idade_do_Cliente <= 39.5\ngini = 0.434\nsamples = 74\nvalue = [79, 37]"] ;
38 -> 54 ;
55 [label="Alteração_no_valor_da_transação <= 0.767\ngini = 0.444\nsamples = 12\nvalue = [6, 12]"] ;
54 -> 55 ;
56 [label="gini = 0.0\nsamples = 8\nvalue = [0, 12]"] ;
55 -> 56 ;
57 [label="gini = 0.0\nsamples = 4\nvalue = [6, 0]"] ;
55 -> 57 ;
58 [label="Variação_Ct_Total_Q4_Q1 <= 0.339\ngini = 0.38\nsamples = 62\nvalue = [73, 25]"] ;
54 -> 58 ;
59 [label="Alteração_no_valor_da_transação <= 0.477\ngini = 0.346\nsamples = 5\nvalue = [2, 7]"] ;
58 -> 59 ;
60 [label="gini = 0.0\nsamples = 1\nvalue = [2, 0]"] ;
59 -> 60 ;
61 [label="gini = 0.0\nsamples = 4\nvalue = [0, 7]"] ;
59 -> 61 ;
62 [label="Valor_Total_Transação <= 2047.0\ngini = 0.323\nsamples = 57\nvalue = [71, 18]"] ;
58 -> 62 ;
63 [label="Variação_Ct_Total_Q4_Q1 <= 0.36\ngini = 0.465\nsamples = 34\nvalue = [31, 18]"] ;
62 -> 63 ;
64 [label="Idade_do_Cliente <= 52.5\ngini = 0.142\nsamples = 7\nvalue = [12, 1]"] ;
63 -> 64 ;
65 [label="gini = 0.0\nsamples = 6\nvalue = [12, 0]"] ;
64 -> 65 ;
66 [label="gini = 0.0\nsamples = 1\nvalue = [0, 1]"] ;
64 -> 66 ;
67 [label="Valor_Total_Transação <= 2029.5\ngini = 0.498\nsamples = 27\nvalue = [19, 17]"] ;
63 -> 67 ;
68 [label="Idade_do_Cliente <= 48.5\ngini = 0.482\nsamples = 26\nvalue = [19, 13]"] ;
67 -> 68 ;
69 [label="Renda_anual <= 3.5\ngini = 0.124\nsamples = 13\nvalue = [14, 1]"] ;
68 -> 69 ;
70 [label="gini = 0.0\nsamples = 9\nvalue = [11, 0]"] ;
69 -> 70 ;
71 [label="Valor_Total_Transação <= 1889.5\ngini = 0.375\nsamples = 4\nvalue = [3, 1]"] ;
69 -> 71 ;
72 [label="gini = 0.0\nsamples = 2\nvalue = [2, 0]"] ;
71 -> 72 ;
73 [label="Idade_do_Cliente <= 47.5\ngini = 0.5\nsamples = 2\nvalue = [1, 1]"] ;
71 -> 73 ;
74 [label="gini = 0.0\nsamples = 1\nvalue = [0, 1]"] ;
73 -> 74 ;
75 [label="gini = 0.0\nsamples = 1\nvalue = [1, 0]"] ;
73 -> 75 ;
76 [label="Período_de_relacionamento_com_o_banco <= 42.5\ngini = 0.415\nsamples = 13\nvalue = [5, 12]"] ;
68 -> 76 ;
77 [label="Variação_Ct_Total_Q4_Q1 <= 0.469\ngini = 0.5\nsamples = 6\nvalue = [4, 4]"] ;
76 -> 77 ;
78 [label="Limite_Disponível <= 12018.0\ngini = 0.32\nsamples = 3\nvalue = [1, 4]"] ;
77 -> 78 ;
79 [label="gini = 0.0\nsamples = 2\nvalue = [0, 4]"] ;
78 -> 79 ;
80 [label="gini = 0.0\nsamples = 1\nvalue = [1, 0]"] ;
78 -> 80 ;
81 [label="gini = 0.0\nsamples = 3\nvalue = [3, 0]"] ;
77 -> 81 ;
82 [label="Variação_Ct_Total_Q4_Q1 <= 0.403\ngini = 0.198\nsamples = 7\nvalue = [1, 8]"] ;
76 -> 82 ;
83 [label="Meses_Inativo <= 2.5\ngini = 0.444\nsamples = 3\nvalue = [1, 2]"] ;
82 -> 83 ;
84 [label="gini = 0.0\nsamples = 1\nvalue = [1, 0]"] ;
83 -> 84 ;
85 [label="gini = 0.0\nsamples = 2\nvalue = [0, 2]"] ;
83 -> 85 ;
86 [label="gini = 0.0\nsamples = 4\nvalue = [0, 6]"] ;
82 -> 86 ;
87 [label="gini = 0.0\nsamples = 1\nvalue = [0, 4]"] ;
67 -> 87 ;
88 [label="gini = 0.0\nsamples = 23\nvalue = [40, 0]"] ;
62 -> 88 ;
89 [label="Gênero <= 0.5\ngini = 0.472\nsamples = 22\nvalue = [13, 21]"] ;
37 -> 89 ;
90 [label="Estado_Civil <= 1.5\ngini = 0.287\nsamples = 14\nvalue = [4, 19]"] ;
89 -> 90 ;
91 [label="Limite_de_Crédito <= 11674.0\ngini = 0.18\nsamples = 12\nvalue = [2, 18]"] ;
90 -> 91 ;
92 [label="Taxa_média_de_utilização_do_cartão <= 0.087\ngini = 0.375\nsamples = 7\nvalue = [2, 6]"] ;
91 -> 92 ;
93 [label="Limite_de_Crédito <= 6384.0\ngini = 0.444\nsamples = 3\nvalue = [2, 1]"] ;
92 -> 93 ;
94 [label="gini = 0.0\nsamples = 1\nvalue = [0, 1]"] ;
93 -> 94 ;
95 [label="gini = 0.0\nsamples = 2\nvalue = [2, 0]"] ;
93 -> 95 ;
96 [label="gini = 0.0\nsamples = 4\nvalue = [0, 5]"] ;
92 -> 96 ;
97 [label="gini = 0.0\nsamples = 5\nvalue = [0, 12]"] ;
91 -> 97 ;
98 [label="Numero_de_Dependentes <= 2.5\ngini = 0.444\nsamples = 2\nvalue = [2, 1]"] ;
90 -> 98 ;
99 [label="gini = 0.0\nsamples = 1\nvalue = [2, 0]"] ;
98 -> 99 ;
100 [label="gini = 0.0\nsamples = 1\nvalue = [0, 1]"] ;
98 -> 100 ;
101 [label="Taxa_média_de_utilização_do_cartão <= 0.141\ngini = 0.298\nsamples = 8\nvalue = [9, 2]"] ;
89 -> 101 ;
102 [label="gini = 0.0\nsamples = 5\nvalue = [8, 0]"] ;
101 -> 102 ;
103 [label="Valor_Total_Transação <= 1820.0\ngini = 0.444\nsamples = 3\nvalue = [1, 2]"] ;
101 -> 103 ;
104 [label="gini = 0.0\nsamples = 2\nvalue = [0, 2]"] ;
103 -> 104 ;
105 [label="gini = 0.0\nsamples = 1\nvalue = [1, 0]"] ;
103 -> 105 ;
106 [label="Contagem_Total_de_Transações <= 63.5\ngini = 0.5\nsamples = 32\nvalue = [24, 25]"] ;
2 -> 106 ;
107 [label="Contatos_12_meses <= 3.5\ngini = 0.087\nsamples = 15\nvalue = [21, 1]"] ;
106 -> 107 ;
108 [label="gini = 0.0\nsamples = 13\nvalue = [20, 0]"] ;
107 -> 108 ;
109 [label="Nível_de_Educação <= 5.0\ngini = 0.5\nsamples = 2\nvalue = [1, 1]"] ;
107 -> 109 ;
110 [label="gini = 0.0\nsamples = 1\nvalue = [1, 0]"] ;
109 -> 110 ;
111 [label="gini = 0.0\nsamples = 1\nvalue = [0, 1]"] ;
109 -> 111 ;
112 [label="Idade_do_Cliente <= 34.5\ngini = 0.198\nsamples = 17\nvalue = [3, 24]"] ;
106 -> 112 ;
113 [label="gini = 0.0\nsamples = 1\nvalue = [1, 0]"] ;
112 -> 113 ;
114 [label="Nº_total_de_produtos <= 1.5\ngini = 0.142\nsamples = 16\nvalue = [2, 24]"] ;
112 -> 114 ;
115 [label="gini = 0.0\nsamples = 1\nvalue = [2, 0]"] ;
114 -> 115 ;
116 [label="gini = 0.0\nsamples = 15\nvalue = [0, 24]"] ;
114 -> 116 ;
117 [label="Taxa_média_de_utilização_do_cartão <= 0.762\ngini = 0.394\nsamples = 282\nvalue = [120, 325]"] ;
1 -> 117 ;
118 [label="Limite_Disponível <= 33500.0\ngini = 0.317\nsamples = 244\nvalue = [75, 304]"] ;
117 -> 118 ;
119 [label="Meses_Inativo <= 2.5\ngini = 0.312\nsamples = 243\nvalue = [73, 304]"] ;
118 -> 119 ;
120 [label="Saldo_Total_Rotativo <= 2148.5\ngini = 0.144\nsamples = 130\nvalue = [15, 177]"] ;
119 -> 120 ;
121 [label="Saldo_Total_Rotativo <= 1959.0\ngini = 0.061\nsamples = 106\nvalue = [5, 153]"] ;
120 -> 121 ;
122 [label="Variação_Ct_Total_Q4_Q1 <= 0.466\ngini = 0.041\nsamples = 95\nvalue = [3, 141]"] ;
121 -> 122 ;
123 [label="Nível_de_Educação <= 2.5\ngini = 0.016\nsamples = 79\nvalue = [1, 121]"] ;
122 -> 123 ;
124 [label="Alteração_no_valor_da_transação <= 0.544\ngini = 0.049\nsamples = 28\nvalue = [1, 39]"] ;
123 -> 124 ;
125 [label="Limite_Disponível <= 13469.5\ngini = 0.219\nsamples = 7\nvalue = [1, 7]"] ;
124 -> 125 ;
126 [label="gini = 0.0\nsamples = 6\nvalue = [0, 7]"] ;
125 -> 126 ;
127 [label="gini = 0.0\nsamples = 1\nvalue = [1, 0]"] ;
125 -> 127 ;
128 [label="gini = 0.0\nsamples = 21\nvalue = [0, 32]"] ;
124 -> 128 ;
129 [label="gini = 0.0\nsamples = 51\nvalue = [0, 82]"] ;
123 -> 129 ;
130 [label="Alteração_no_valor_da_transação <= 0.778\ngini = 0.165\nsamples = 16\nvalue = [2, 20]"] ;
122 -> 130 ;
131 [label="gini = 0.0\nsamples = 14\nvalue = [0, 20]"] ;
130 -> 131 ;
132 [label="gini = 0.0\nsamples = 2\nvalue = [2, 0]"] ;
130 -> 132 ;
133 [label="Limite_Disponível <= 32511.5\ngini = 0.245\nsamples = 11\nvalue = [2, 12]"] ;
121 -> 133 ;
134 [label="Saldo_Total_Rotativo <= 1963.5\ngini = 0.142\nsamples = 10\nvalue = [1, 12]"] ;
133 -> 134 ;
135 [label="gini = 0.0\nsamples = 1\nvalue = [1, 0]"] ;
134 -> 135 ;
136 [label="gini = 0.0\nsamples = 9\nvalue = [0, 12]"] ;
134 -> 136 ;
137 [label="gini = 0.0\nsamples = 1\nvalue = [1, 0]"] ;
133 -> 137 ;
138 [label="Valor_Total_Transação <= 2027.5\ngini = 0.415\nsamples = 24\nvalue = [10, 24]"] ;
120 -> 138 ;
139 [label="Nível_de_Educação <= 3.5\ngini = 0.219\nsamples = 17\nvalue = [3, 21]"] ;
138 -> 139 ;
140 [label="gini = 0.0\nsamples = 10\nvalue = [0, 15]"] ;
139 -> 140 ;
141 [label="Variação_Ct_Total_Q4_Q1 <= 0.286\ngini = 0.444\nsamples = 7\nvalue = [3, 6]"] ;
139 -> 141 ;
142 [label="gini = 0.0\nsamples = 1\nvalue = [1, 0]"] ;
141 -> 142 ;
143 [label="Gênero <= 0.5\ngini = 0.375\nsamples = 6\nvalue = [2, 6]"] ;
141 -> 143 ;
144 [label="gini = 0.0\nsamples = 2\nvalue = [2, 0]"] ;
143 -> 144 ;
145 [label="gini = 0.0\nsamples = 4\nvalue = [0, 6]"] ;
143 -> 145 ;
146 [label="Contagem_Total_de_Transações <= 47.0\ngini = 0.42\nsamples = 7\nvalue = [7, 3]"] ;
138 -> 146 ;
147 [label="gini = 0.0\nsamples = 4\nvalue = [6, 0]"] ;
146 -> 147 ;
148 [label="Alteração_no_valor_da_transação <= 0.954\ngini = 0.375\nsamples = 3\nvalue = [1, 3]"] ;
146 -> 148 ;
149 [label="gini = 0.0\nsamples = 2\nvalue = [0, 3]"] ;
148 -> 149 ;
150 [label="gini = 0.0\nsamples = 1\nvalue = [1, 0]"] ;
148 -> 150 ;
151 [label="Nº_total_de_produtos <= 1.5\ngini = 0.43\nsamples = 113\nvalue = [58, 127]"] ;
119 -> 151 ;
152 [label="gini = 0.0\nsamples = 8\nvalue = [14, 0]"] ;
151 -> 152 ;
153 [label="Saldo_Total_Rotativo <= 2320.0\ngini = 0.382\nsamples = 105\nvalue = [44, 127]"] ;
151 -> 153 ;
154 [label="Limite_de_Crédito <= 14632.5\ngini = 0.255\nsamples = 88\nvalue = [22, 125]"] ;
153 -> 154 ;
155 [label="Variação_Ct_Total_Q4_Q1 <= 0.484\ngini = 0.296\nsamples = 74\nvalue = [22, 100]"] ;
154 -> 155 ;
156 [label="Saldo_Total_Rotativo <= 1358.0\ngini = 0.278\nsamples = 73\nvalue = [20, 100]"] ;
155 -> 156 ;
157 [label="Saldo_Total_Rotativo <= 1260.0\ngini = 0.444\nsamples = 22\nvalue = [11, 22]"] ;
156 -> 157 ;
158 [label="Numero_de_Dependentes <= 2.5\ngini = 0.269\nsamples = 18\nvalue = [4, 21]"] ;
157 -> 158 ;
159 [label="Valor_Total_Transação <= 2311.0\ngini = 0.1\nsamples = 15\nvalue = [1, 18]"] ;
158 -> 159 ;
160 [label="gini = 0.0\nsamples = 12\nvalue = [0, 16]"] ;
159 -> 160 ;
161 [label="Saldo_Total_Rotativo <= 1115.0\ngini = 0.444\nsamples = 3\nvalue = [1, 2]"] ;
159 -> 161 ;
162 [label="gini = 0.0\nsamples = 1\nvalue = [1, 0]"] ;
161 -> 162 ;
163 [label="gini = 0.0\nsamples = 2\nvalue = [0, 2]"] ;
161 -> 163 ;
164 [label="Alteração_no_valor_da_transação <= 0.896\ngini = 0.5\nsamples = 3\nvalue = [3, 3]"] ;
158 -> 164 ;
165 [label="gini = 0.0\nsamples = 2\nvalue = [0, 3]"] ;
164 -> 165 ;
166 [label="gini = 0.0\nsamples = 1\nvalue = [3, 0]"] ;
164 -> 166 ;
167 [label="Valor_Total_Transação <= 2286.5\ngini = 0.219\nsamples = 4\nvalue = [7, 1]"] ;
157 -> 167 ;
168 [label="gini = 0.0\nsamples = 3\nvalue = [7, 0]"] ;
167 -> 168 ;
169 [label="gini = 0.0\nsamples = 1\nvalue = [0, 1]"] ;
167 -> 169 ;
170 [label="Limite_de_Crédito <= 12251.5\ngini = 0.185\nsamples = 51\nvalue = [9, 78]"] ;
156 -> 170 ;
171 [label="Alteração_no_valor_da_transação <= 0.185\ngini = 0.137\nsamples = 47\nvalue = [6, 75]"] ;
170 -> 171 ;
172 [label="gini = 0.0\nsamples = 1\nvalue = [1, 0]"] ;
171 -> 172 ;
173 [label="Valor_Total_Transação <= 2137.5\ngini = 0.117\nsamples = 46\nvalue = [5, 75]"] ;
171 -> 173 ;
174 [label="gini = 0.0\nsamples = 33\nvalue = [0, 58]"] ;
173 -> 174 ;
175 [label="Contagem_Total_de_Transações <= 56.5\ngini = 0.351\nsamples = 13\nvalue = [5, 17]"] ;
173 -> 175 ;
176 [label="Período_de_relacionamento_com_o_banco <= 32.0\ngini = 0.494\nsamples = 6\nvalue = [5, 4]"] ;
175 -> 176 ;
177 [label="gini = 0.0\nsamples = 2\nvalue = [0, 4]"] ;
176 -> 177 ;
178 [label="gini = 0.0\nsamples = 4\nvalue = [5, 0]"] ;
176 -> 178 ;
179 [label="gini = 0.0\nsamples = 7\nvalue = [0, 13]"] ;
175 -> 179 ;
180 [label="Variação_Ct_Total_Q4_Q1 <= 0.412\ngini = 0.5\nsamples = 4\nvalue = [3, 3]"] ;
170 -> 180 ;
181 [label="gini = 0.0\nsamples = 2\nvalue = [0, 3]"] ;
180 -> 181 ;
182 [label="gini = 0.0\nsamples = 2\nvalue = [3, 0]"] ;
180 -> 182 ;
183 [label="gini = 0.0\nsamples = 1\nvalue = [2, 0]"] ;
155 -> 183 ;
184 [label="gini = 0.0\nsamples = 14\nvalue = [0, 25]"] ;
154 -> 184 ;
185 [label="Nível_de_Educação <= 5.0\ngini = 0.153\nsamples = 17\nvalue = [22, 2]"] ;
153 -> 185 ;
186 [label="gini = 0.0\nsamples = 14\nvalue = [20, 0]"] ;
185 -> 186 ;
187 [label="Taxa_média_de_utilização_do_cartão <= 0.087\ngini = 0.5\nsamples = 3\nvalue = [2, 2]"] ;
185 -> 187 ;
188 [label="gini = 0.0\nsamples = 1\nvalue = [0, 2]"] ;
187 -> 188 ;
189 [label="gini = 0.0\nsamples = 2\nvalue = [2, 0]"] ;
187 -> 189 ;
190 [label="gini = 0.0\nsamples = 1\nvalue = [2, 0]"] ;
118 -> 190 ;
191 [label="Período_de_relacionamento_com_o_banco <= 44.5\ngini = 0.434\nsamples = 38\nvalue = [45, 21]"] ;
117 -> 191 ;
192 [label="Valor_Total_Transação <= 3560.0\ngini = 0.395\nsamples = 34\nvalue = [43, 16]"] ;
191 -> 192 ;
193 [label="Variação_Ct_Total_Q4_Q1 <= 0.39\ngini = 0.357\nsamples = 32\nvalue = [43, 13]"] ;
192 -> 193 ;
194 [label="Nível_de_Educação <= 1.0\ngini = 0.175\nsamples = 16\nvalue = [28, 3]"] ;
193 -> 194 ;
195 [label="gini = 0.0\nsamples = 1\nvalue = [0, 1]"] ;
194 -> 195 ;
196 [label="Meses_Inativo <= 1.5\ngini = 0.124\nsamples = 15\nvalue = [28, 2]"] ;
194 -> 196 ;
197 [label="Idade_do_Cliente <= 45.0\ngini = 0.444\nsamples = 2\nvalue = [1, 2]"] ;
196 -> 197 ;
198 [label="gini = 0.0\nsamples = 1\nvalue = [1, 0]"] ;
197 -> 198 ;
199 [label="gini = 0.0\nsamples = 1\nvalue = [0, 2]"] ;
197 -> 199 ;
200 [label="gini = 0.0\nsamples = 13\nvalue = [27, 0]"] ;
196 -> 200 ;
201 [label="Limite_de_Crédito <= 2309.0\ngini = 0.48\nsamples = 16\nvalue = [15, 10]"] ;
193 -> 201 ;
202 [label="Saldo_Total_Rotativo <= 1427.5\ngini = 0.245\nsamples = 5\nvalue = [1, 6]"] ;
201 -> 202 ;
203 [label="gini = 0.0\nsamples = 1\nvalue = [1, 0]"] ;
202 -> 203 ;
204 [label="gini = 0.0\nsamples = 4\nvalue = [0, 6]"] ;
202 -> 204 ;
205 [label="Valor_Total_Transação <= 2088.0\ngini = 0.346\nsamples = 11\nvalue = [14, 4]"] ;
201 -> 205 ;
206 [label="Taxa_média_de_utilização_do_cartão <= 0.849\ngini = 0.494\nsamples = 6\nvalue = [5, 4]"] ;
205 -> 206 ;
207 [label="Alteração_no_valor_da_transação <= 0.605\ngini = 0.32\nsamples = 3\nvalue = [1, 4]"] ;
206 -> 207 ;
208 [label="gini = 0.0\nsamples = 1\nvalue = [1, 0]"] ;
207 -> 208 ;
209 [label="gini = 0.0\nsamples = 2\nvalue = [0, 4]"] ;
207 -> 209 ;
210 [label="gini = 0.0\nsamples = 3\nvalue = [4, 0]"] ;
206 -> 210 ;
211 [label="gini = 0.0\nsamples = 5\nvalue = [9, 0]"] ;
205 -> 211 ;
212 [label="gini = 0.0\nsamples = 2\nvalue = [0, 3]"] ;
192 -> 212 ;
213 [label="Valor_Total_Transação <= 1052.0\ngini = 0.408\nsamples = 4\nvalue = [2, 5]"] ;
191 -> 213 ;
214 [label="gini = 0.0\nsamples = 1\nvalue = [2, 0]"] ;
213 -> 214 ;
215 [label="gini = 0.0\nsamples = 3\nvalue = [0, 5]"] ;
213 -> 215 ;
216 [label="Variação_Ct_Total_Q4_Q1 <= 0.587\ngini = 0.2\nsamples = 3917\nvalue = [695, 5467]"] ;
0 -> 216 [labeldistance=2.5, labelangle=-45, headlabel="False"] ;
217 [label="Taxa_média_de_utilização_do_cartão <= 0.042\ngini = 0.378\nsamples = 570\nvalue = [224, 662]"] ;
216 -> 217 ;
218 [label="Limite_Disponível <= 23527.5\ngini = 0.5\nsamples = 168\nvalue = [139, 136]"] ;
217 -> 218 ;
219 [label="Contagem_Total_de_Transações <= 66.0\ngini = 0.496\nsamples = 141\nvalue = [129, 108]"] ;
218 -> 219 ;
220 [label="Idade_do_Cliente <= 30.0\ngini = 0.299\nsamples = 95\nvalue = [125, 28]"] ;
219 -> 220 ;
221 [label="gini = 0.0\nsamples = 3\nvalue = [0, 7]"] ;
220 -> 221 ;
222 [label="Valor_Total_Transação <= 3196.5\ngini = 0.246\nsamples = 92\nvalue = [125, 21]"] ;
220 -> 222 ;
223 [label="Período_de_relacionamento_com_o_banco <= 21.5\ngini = 0.181\nsamples = 80\nvalue = [116, 13]"] ;
222 -> 223 ;
224 [label="Limite_Disponível <= 2916.15\ngini = 0.444\nsamples = 3\nvalue = [1, 2]"] ;
223 -> 224 ;
225 [label="gini = 0.0\nsamples = 1\nvalue = [1, 0]"] ;
224 -> 225 ;
226 [label="gini = 0.0\nsamples = 2\nvalue = [0, 2]"] ;
224 -> 226 ;
227 [label="Nível_de_Educação <= 2.5\ngini = 0.159\nsamples = 77\nvalue = [115, 11]"] ;
223 -> 227 ;
228 [label="Limite_Disponível <= 1447.15\ngini = 0.064\nsamples = 36\nvalue = [58, 2]"] ;
227 -> 228 ;
229 [label="Variação_Ct_Total_Q4_Q1 <= 0.556\ngini = 0.444\nsamples = 2\nvalue = [2, 1]"] ;
228 -> 229 ;
230 [label="gini = 0.0\nsamples = 1\nvalue = [0, 1]"] ;
229 -> 230 ;
231 [label="gini = 0.0\nsamples = 1\nvalue = [2, 0]"] ;
229 -> 231 ;
232 [label="Contagem_Total_de_Transações <= 54.0\ngini = 0.034\nsamples = 34\nvalue = [56, 1]"] ;
228 -> 232 ;
233 [label="gini = 0.0\nsamples = 33\nvalue = [56, 0]"] ;
232 -> 233 ;
234 [label="gini = 0.0\nsamples = 1\nvalue = [0, 1]"] ;
232 -> 234 ;
235 [label="Limite_de_Crédito <= 13231.5\ngini = 0.236\nsamples = 41\nvalue = [57, 9]"] ;
227 -> 235 ;
236 [label="Limite_Disponível <= 5202.0\ngini = 0.172\nsamples = 38\nvalue = [57, 6]"] ;
235 -> 236 ;
237 [label="Contagem_Total_de_Transações <= 52.0\ngini = 0.25\nsamples = 26\nvalue = [35, 6]"] ;
236 -> 237 ;
238 [label="Nº_total_de_produtos <= 2.5\ngini = 0.157\nsamples = 23\nvalue = [32, 3]"] ;
237 -> 238 ;
239 [label="gini = 0.0\nsamples = 6\nvalue = [12, 0]"] ;
238 -> 239 ;
240 [label="Período_de_relacionamento_com_o_banco <= 50.5\ngini = 0.227\nsamples = 17\nvalue = [20, 3]"] ;
238 -> 240 ;
241 [label="Limite_de_Crédito <= 3993.5\ngini = 0.165\nsamples = 16\nvalue = [20, 2]"] ;
240 -> 241 ;
242 [label="gini = 0.0\nsamples = 14\nvalue = [20, 0]"] ;
241 -> 242 ;
243 [label="gini = 0.0\nsamples = 2\nvalue = [0, 2]"] ;
241 -> 243 ;
244 [label="gini = 0.0\nsamples = 1\nvalue = [0, 1]"] ;
240 -> 244 ;
245 [label="Valor_Total_Transação <= 2229.0\ngini = 0.5\nsamples = 3\nvalue = [3, 3]"] ;
237 -> 245 ;
246 [label="gini = 0.0\nsamples = 1\nvalue = [0, 3]"] ;
245 -> 246 ;
247 [label="gini = 0.0\nsamples = 2\nvalue = [3, 0]"] ;
245 -> 247 ;
248 [label="gini = 0.0\nsamples = 12\nvalue = [22, 0]"] ;
236 -> 248 ;
249 [label="gini = 0.0\nsamples = 3\nvalue = [0, 3]"] ;
235 -> 249 ;
250 [label="Nível_de_Educação <= 1.5\ngini = 0.498\nsamples = 12\nvalue = [9, 8]"] ;
222 -> 250 ;
251 [label="gini = 0.0\nsamples = 3\nvalue = [6, 0]"] ;
250 -> 251 ;
252 [label="Tipo_de_cartão <= 1.0\ngini = 0.397\nsamples = 9\nvalue = [3, 8]"] ;
250 -> 252 ;
253 [label="Saldo_Total_Rotativo <= 99.5\ngini = 0.198\nsamples = 8\nvalue = [1, 8]"] ;
252 -> 253 ;
254 [label="gini = 0.0\nsamples = 7\nvalue = [0, 8]"] ;
253 -> 254 ;
255 [label="gini = 0.0\nsamples = 1\nvalue = [1, 0]"] ;
253 -> 255 ;
256 [label="gini = 0.0\nsamples = 1\nvalue = [2, 0]"] ;
252 -> 256 ;
257 [label="Limite_de_Crédito <= 11497.0\ngini = 0.091\nsamples = 46\nvalue = [4, 80]"] ;
219 -> 257 ;
258 [label="Nº_total_de_produtos <= 5.5\ngini = 0.029\nsamples = 35\nvalue = [1, 66]"] ;
257 -> 258 ;
259 [label="gini = 0.0\nsamples = 27\nvalue = [0, 50]"] ;
258 -> 259 ;
260 [label="Renda_anual <= 3.5\ngini = 0.111\nsamples = 8\nvalue = [1, 16]"] ;
258 -> 260 ;
261 [label="gini = 0.0\nsamples = 6\nvalue = [0, 15]"] ;
260 -> 261 ;
262 [label="Valor_Total_Transação <= 6429.0\ngini = 0.5\nsamples = 2\nvalue = [1, 1]"] ;
260 -> 262 ;
263 [label="gini = 0.0\nsamples = 1\nvalue = [0, 1]"] ;
262 -> 263 ;
264 [label="gini = 0.0\nsamples = 1\nvalue = [1, 0]"] ;
262 -> 264 ;
265 [label="Variação_Ct_Total_Q4_Q1 <= 0.568\ngini = 0.291\nsamples = 11\nvalue = [3, 14]"] ;
257 -> 265 ;
266 [label="gini = 0.0\nsamples = 9\nvalue = [0, 13]"] ;
265 -> 266 ;
267 [label="Alteração_no_valor_da_transação <= 0.762\ngini = 0.375\nsamples = 2\nvalue = [3, 1]"] ;
265 -> 267 ;
268 [label="gini = 0.0\nsamples = 1\nvalue = [0, 1]"] ;
267 -> 268 ;
269 [label="gini = 0.0\nsamples = 1\nvalue = [3, 0]"] ;
267 -> 269 ;
270 [label="Período_de_relacionamento_com_o_banco <= 44.0\ngini = 0.388\nsamples = 27\nvalue = [10, 28]"] ;
218 -> 270 ;
271 [label="Valor_Total_Transação <= 1098.5\ngini = 0.298\nsamples = 23\nvalue = [6, 27]"] ;
270 -> 271 ;
272 [label="gini = 0.0\nsamples = 1\nvalue = [1, 0]"] ;
271 -> 272 ;
273 [label="Nº_total_de_produtos <= 4.5\ngini = 0.264\nsamples = 22\nvalue = [5, 27]"] ;
271 -> 273 ;
274 [label="Variação_Ct_Total_Q4_Q1 <= 0.528\ngini = 0.153\nsamples = 15\nvalue = [2, 22]"] ;
273 -> 274 ;
275 [label="Valor_Total_Transação <= 2075.0\ngini = 0.444\nsamples = 4\nvalue = [2, 4]"] ;
274 -> 275 ;
276 [label="gini = 0.0\nsamples = 2\nvalue = [0, 4]"] ;
275 -> 276 ;
277 [label="gini = 0.0\nsamples = 2\nvalue = [2, 0]"] ;
275 -> 277 ;
278 [label="gini = 0.0\nsamples = 11\nvalue = [0, 18]"] ;
274 -> 278 ;
279 [label="Contagem_Total_de_Transações <= 47.5\ngini = 0.469\nsamples = 7\nvalue = [3, 5]"] ;
273 -> 279 ;
280 [label="Limite_de_Crédito <= 29533.5\ngini = 0.375\nsamples = 3\nvalue = [3, 1]"] ;
279 -> 280 ;
281 [label="gini = 0.0\nsamples = 1\nvalue = [2, 0]"] ;
280 -> 281 ;
282 [label="Limite_de_Crédito <= 34153.5\ngini = 0.5\nsamples = 2\nvalue = [1, 1]"] ;
280 -> 282 ;
283 [label="gini = 0.0\nsamples = 1\nvalue = [0, 1]"] ;
282 -> 283 ;
284 [label="gini = 0.0\nsamples = 1\nvalue = [1, 0]"] ;
282 -> 284 ;
285 [label="gini = 0.0\nsamples = 4\nvalue = [0, 4]"] ;
279 -> 285 ;
286 [label="Gênero <= 0.5\ngini = 0.32\nsamples = 4\nvalue = [4, 1]"] ;
270 -> 286 ;
287 [label="gini = 0.0\nsamples = 3\nvalue = [4, 0]"] ;
286 -> 287 ;
288 [label="gini = 0.0\nsamples = 1\nvalue = [0, 1]"] ;
286 -> 288 ;
289 [label="Limite_de_Crédito <= 1973.0\ngini = 0.24\nsamples = 402\nvalue = [85, 526]"] ;
217 -> 289 ;
290 [label="Período_de_relacionamento_com_o_banco <= 37.0\ngini = 0.479\nsamples = 33\nvalue = [23, 35]"] ;
289 -> 290 ;
291 [label="Contagem_Total_de_Transações <= 58.0\ngini = 0.464\nsamples = 17\nvalue = [19, 11]"] ;
290 -> 291 ;
292 [label="Numero_de_Dependentes <= 1.5\ngini = 0.172\nsamples = 11\nvalue = [19, 2]"] ;
291 -> 292 ;
293 [label="gini = 0.0\nsamples = 2\nvalue = [0, 2]"] ;
292 -> 293 ;
294 [label="gini = 0.0\nsamples = 9\nvalue = [19, 0]"] ;
292 -> 294 ;
295 [label="gini = 0.0\nsamples = 6\nvalue = [0, 9]"] ;
291 -> 295 ;
296 [label="Saldo_Total_Rotativo <= 1470.0\ngini = 0.245\nsamples = 16\nvalue = [4, 24]"] ;
290 -> 296 ;
297 [label="Alteração_no_valor_da_transação <= 0.479\ngini = 0.08\nsamples = 14\nvalue = [1, 23]"] ;
296 -> 297 ;
298 [label="gini = 0.0\nsamples = 1\nvalue = [1, 0]"] ;
297 -> 298 ;
299 [label="gini = 0.0\nsamples = 13\nvalue = [0, 23]"] ;
297 -> 299 ;
300 [label="Contagem_Total_de_Transações <= 58.0\ngini = 0.375\nsamples = 2\nvalue = [3, 1]"] ;
296 -> 300 ;
301 [label="gini = 0.0\nsamples = 1\nvalue = [3, 0]"] ;
300 -> 301 ;
302 [label="gini = 0.0\nsamples = 1\nvalue = [0, 1]"] ;
300 -> 302 ;
303 [label="Valor_Total_Transação <= 2959.5\ngini = 0.199\nsamples = 369\nvalue = [62, 491]"] ;
289 -> 303 ;
304 [label="Limite_de_Crédito <= 9157.5\ngini = 0.337\nsamples = 163\nvalue = [53, 194]"] ;
303 -> 304 ;
305 [label="Valor_Total_Transação <= 2267.5\ngini = 0.413\nsamples = 109\nvalue = [49, 119]"] ;
304 -> 305 ;
306 [label="Variação_Ct_Total_Q4_Q1 <= 0.585\ngini = 0.271\nsamples = 84\nvalue = [21, 109]"] ;
305 -> 306 ;
307 [label="Período_de_relacionamento_com_o_banco <= 36.5\ngini = 0.243\nsamples = 82\nvalue = [18, 109]"] ;
306 -> 307 ;
308 [label="Alteração_no_valor_da_transação <= 0.61\ngini = 0.106\nsamples = 54\nvalue = [5, 84]"] ;
307 -> 308 ;
309 [label="Limite_Disponível <= 4259.5\ngini = 0.278\nsamples = 15\nvalue = [4, 20]"] ;
308 -> 309 ;
310 [label="Meses_Inativo <= 2.5\ngini = 0.172\nsamples = 13\nvalue = [2, 19]"] ;
309 -> 310 ;
311 [label="gini = 0.0\nsamples = 8\nvalue = [0, 12]"] ;
310 -> 311 ;
312 [label="Alteração_no_valor_da_transação <= 0.546\ngini = 0.346\nsamples = 5\nvalue = [2, 7]"] ;
310 -> 312 ;
313 [label="gini = 0.0\nsamples = 2\nvalue = [2, 0]"] ;
312 -> 313 ;
314 [label="gini = 0.0\nsamples = 3\nvalue = [0, 7]"] ;
312 -> 314 ;
315 [label="Nº_total_de_produtos <= 4.0\ngini = 0.444\nsamples = 2\nvalue = [2, 1]"] ;
309 -> 315 ;
316 [label="gini = 0.0\nsamples = 1\nvalue = [2, 0]"] ;
315 -> 316 ;
317 [label="gini = 0.0\nsamples = 1\nvalue = [0, 1]"] ;
315 -> 317 ;
318 [label="Nível_de_Educação <= 5.5\ngini = 0.03\nsamples = 39\nvalue = [1, 64]"] ;
308 -> 318 ;
319 [label="gini = 0.0\nsamples = 34\nvalue = [0, 57]"] ;
318 -> 319 ;
320 [label="Taxa_média_de_utilização_do_cartão <= 0.198\ngini = 0.219\nsamples = 5\nvalue = [1, 7]"] ;
318 -> 320 ;
321 [label="gini = 0.0\nsamples = 1\nvalue = [1, 0]"] ;
320 -> 321 ;
322 [label="gini = 0.0\nsamples = 4\nvalue = [0, 7]"] ;
320 -> 322 ;
323 [label="Saldo_Total_Rotativo <= 1178.0\ngini = 0.45\nsamples = 28\nvalue = [13, 25]"] ;
307 -> 323 ;
324 [label="Contatos_12_meses <= 2.5\ngini = 0.346\nsamples = 6\nvalue = [7, 2]"] ;
323 -> 324 ;
325 [label="gini = 0.0\nsamples = 2\nvalue = [0, 2]"] ;
324 -> 325 ;
326 [label="gini = 0.0\nsamples = 4\nvalue = [7, 0]"] ;
324 -> 326 ;
327 [label="Estado_Civil <= 0.5\ngini = 0.328\nsamples = 22\nvalue = [6, 23]"] ;
323 -> 327 ;
328 [label="Nº_total_de_produtos <= 2.5\ngini = 0.147\nsamples = 20\nvalue = [2, 23]"] ;
327 -> 328 ;
329 [label="gini = 0.0\nsamples = 2\nvalue = [2, 0]"] ;
328 -> 329 ;
330 [label="gini = 0.0\nsamples = 18\nvalue = [0, 23]"] ;
328 -> 330 ;
331 [label="gini = 0.0\nsamples = 2\nvalue = [4, 0]"] ;
327 -> 331 ;
332 [label="gini = 0.0\nsamples = 2\nvalue = [3, 0]"] ;
306 -> 332 ;
333 [label="Contagem_Total_de_Transações <= 52.0\ngini = 0.388\nsamples = 25\nvalue = [28, 10]"] ;
305 -> 333 ;
334 [label="Alteração_no_valor_da_transação <= 0.91\ngini = 0.291\nsamples = 22\nvalue = [28, 6]"] ;
333 -> 334 ;
335 [label="Saldo_Total_Rotativo <= 2018.0\ngini = 0.124\nsamples = 19\nvalue = [28, 2]"] ;
334 -> 335 ;
336 [label="Variação_Ct_Total_Q4_Q1 <= 0.558\ngini = 0.278\nsamples = 9\nvalue = [10, 2]"] ;
335 -> 336 ;
337 [label="Contatos_12_meses <= 3.0\ngini = 0.444\nsamples = 5\nvalue = [4, 2]"] ;
336 -> 337 ;
338 [label="Idade_do_Cliente <= 38.0\ngini = 0.32\nsamples = 4\nvalue = [4, 1]"] ;
337 -> 338 ;
339 [label="gini = 0.0\nsamples = 1\nvalue = [0, 1]"] ;
338 -> 339 ;
340 [label="gini = 0.0\nsamples = 3\nvalue = [4, 0]"] ;
338 -> 340 ;
341 [label="gini = 0.0\nsamples = 1\nvalue = [0, 1]"] ;
337 -> 341 ;
342 [label="gini = 0.0\nsamples = 4\nvalue = [6, 0]"] ;
336 -> 342 ;
343 [label="gini = 0.0\nsamples = 10\nvalue = [18, 0]"] ;
335 -> 343 ;
344 [label="gini = 0.0\nsamples = 3\nvalue = [0, 4]"] ;
334 -> 344 ;
345 [label="gini = 0.0\nsamples = 3\nvalue = [0, 4]"] ;
333 -> 345 ;
346 [label="Idade_do_Cliente <= 57.5\ngini = 0.096\nsamples = 54\nvalue = [4, 75]"] ;
304 -> 346 ;
347 [label="Tipo_de_cartão <= 1.5\ngini = 0.055\nsamples = 49\nvalue = [2, 69]"] ;
346 -> 347 ;
348 [label="Estado_Civil <= 2.5\ngini = 0.029\nsamples = 45\nvalue = [1, 66]"] ;
347 -> 348 ;
349 [label="gini = 0.0\nsamples = 33\nvalue = [0, 53]"] ;
348 -> 349 ;
350 [label="Idade_do_Cliente <= 33.5\ngini = 0.133\nsamples = 12\nvalue = [1, 13]"] ;
348 -> 350 ;
351 [label="Contatos_12_meses <= 3.0\ngini = 0.444\nsamples = 3\nvalue = [1, 2]"] ;
350 -> 351 ;
352 [label="gini = 0.0\nsamples = 1\nvalue = [1, 0]"] ;
351 -> 352 ;
353 [label="gini = 0.0\nsamples = 2\nvalue = [0, 2]"] ;
351 -> 353 ;
354 [label="gini = 0.0\nsamples = 9\nvalue = [0, 11]"] ;
350 -> 354 ;
355 [label="Período_de_relacionamento_com_o_banco <= 40.0\ngini = 0.375\nsamples = 4\nvalue = [1, 3]"] ;
347 -> 355 ;
356 [label="gini = 0.0\nsamples = 3\nvalue = [0, 3]"] ;
355 -> 356 ;
357 [label="gini = 0.0\nsamples = 1\nvalue = [1, 0]"] ;
355 -> 357 ;
358 [label="Idade_do_Cliente <= 59.5\ngini = 0.375\nsamples = 5\nvalue = [2, 6]"] ;
346 -> 358 ;
359 [label="Valor_Total_Transação <= 1258.5\ngini = 0.444\nsamples = 2\nvalue = [2, 1]"] ;
358 -> 359 ;
360 [label="gini = 0.0\nsamples = 1\nvalue = [2, 0]"] ;
359 -> 360 ;
361 [label="gini = 0.0\nsamples = 1\nvalue = [0, 1]"] ;
359 -> 361 ;
362 [label="gini = 0.0\nsamples = 3\nvalue = [0, 5]"] ;
358 -> 362 ;
363 [label="Meses_Inativo <= 2.5\ngini = 0.057\nsamples = 206\nvalue = [9, 297]"] ;
303 -> 363 ;
364 [label="gini = 0.0\nsamples = 111\nvalue = [0, 166]"] ;
363 -> 364 ;
365 [label="Saldo_Total_Rotativo <= 2237.0\ngini = 0.12\nsamples = 95\nvalue = [9, 131]"] ;
363 -> 365 ;
366 [label="Valor_Total_Transação <= 8004.5\ngini = 0.033\nsamples = 81\nvalue = [2, 119]"] ;
365 -> 366 ;
367 [label="gini = 0.0\nsamples = 68\nvalue = [0, 103]"] ;
366 -> 367 ;
368 [label="Idade_do_Cliente <= 52.5\ngini = 0.198\nsamples = 13\nvalue = [2, 16]"] ;
366 -> 368 ;
369 [label="gini = 0.0\nsamples = 10\nvalue = [0, 14]"] ;
368 -> 369 ;
370 [label="Saldo_Total_Rotativo <= 1146.5\ngini = 0.5\nsamples = 3\nvalue = [2, 2]"] ;
368 -> 370 ;
371 [label="gini = 0.0\nsamples = 1\nvalue = [0, 1]"] ;
370 -> 371 ;
372 [label="Gênero <= 0.5\ngini = 0.444\nsamples = 2\nvalue = [2, 1]"] ;
370 -> 372 ;
373 [label="gini = 0.0\nsamples = 1\nvalue = [2, 0]"] ;
372 -> 373 ;
374 [label="gini = 0.0\nsamples = 1\nvalue = [0, 1]"] ;
372 -> 374 ;
375 [label="Período_de_relacionamento_com_o_banco <= 45.0\ngini = 0.465\nsamples = 14\nvalue = [7, 12]"] ;
365 -> 375 ;
376 [label="Alteração_no_valor_da_transação <= 0.861\ngini = 0.375\nsamples = 13\nvalue = [4, 12]"] ;
375 -> 376 ;
377 [label="Renda_anual <= 3.5\ngini = 0.245\nsamples = 11\nvalue = [2, 12]"] ;
376 -> 377 ;
378 [label="gini = 0.0\nsamples = 7\nvalue = [0, 9]"] ;
377 -> 378 ;
379 [label="Contagem_Total_de_Transações <= 56.5\ngini = 0.48\nsamples = 4\nvalue = [2, 3]"] ;
377 -> 379 ;
380 [label="gini = 0.0\nsamples = 2\nvalue = [2, 0]"] ;
379 -> 380 ;
381 [label="gini = 0.0\nsamples = 2\nvalue = [0, 3]"] ;
379 -> 381 ;
382 [label="gini = 0.0\nsamples = 2\nvalue = [2, 0]"] ;
376 -> 382 ;
383 [label="gini = 0.0\nsamples = 1\nvalue = [3, 0]"] ;
375 -> 383 ;
384 [label="Meses_Inativo <= 2.5\ngini = 0.163\nsamples = 3347\nvalue = [471, 4805]"] ;
216 -> 384 ;
385 [label="Taxa_média_de_utilização_do_cartão <= 0.025\ngini = 0.113\nsamples = 1866\nvalue = [173, 2713]"] ;
384 -> 385 ;
386 [label="Contagem_Total_de_Transações <= 58.5\ngini = 0.276\nsamples = 419\nvalue = [107, 541]"] ;
385 -> 386 ;
387 [label="Período_de_relacionamento_com_o_banco <= 31.5\ngini = 0.494\nsamples = 110\nvalue = [72, 90]"] ;
386 -> 387 ;
388 [label="Valor_Total_Transação <= 1819.0\ngini = 0.441\nsamples = 43\nvalue = [39, 19]"] ;
387 -> 388 ;
389 [label="Alteração_no_valor_da_transação <= 0.584\ngini = 0.278\nsamples = 5\nvalue = [1, 5]"] ;
388 -> 389 ;
390 [label="gini = 0.0\nsamples = 1\nvalue = [1, 0]"] ;
389 -> 390 ;
391 [label="gini = 0.0\nsamples = 4\nvalue = [0, 5]"] ;
389 -> 391 ;
392 [label="Idade_do_Cliente <= 37.5\ngini = 0.393\nsamples = 38\nvalue = [38, 14]"] ;
388 -> 392 ;
393 [label="Variação_Ct_Total_Q4_Q1 <= 0.775\ngini = 0.495\nsamples = 21\nvalue = [16, 13]"] ;
392 -> 393 ;
394 [label="Renda_anual <= 4.0\ngini = 0.291\nsamples = 12\nvalue = [14, 3]"] ;
393 -> 394 ;
395 [label="Valor_Total_Transação <= 2141.5\ngini = 0.219\nsamples = 11\nvalue = [14, 2]"] ;
394 -> 395 ;
396 [label="gini = 0.0\nsamples = 1\nvalue = [0, 1]"] ;
395 -> 396 ;
397 [label="Nível_de_Educação <= 3.0\ngini = 0.124\nsamples = 10\nvalue = [14, 1]"] ;
395 -> 397 ;
398 [label="Contatos_12_meses <= 1.5\ngini = 0.278\nsamples = 4\nvalue = [5, 1]"] ;
397 -> 398 ;
399 [label="gini = 0.0\nsamples = 1\nvalue = [0, 1]"] ;
398 -> 399 ;
400 [label="gini = 0.0\nsamples = 3\nvalue = [5, 0]"] ;
398 -> 400 ;
401 [label="gini = 0.0\nsamples = 6\nvalue = [9, 0]"] ;
397 -> 401 ;
402 [label="gini = 0.0\nsamples = 1\nvalue = [0, 1]"] ;
394 -> 402 ;
403 [label="Limite_de_Crédito <= 29780.5\ngini = 0.278\nsamples = 9\nvalue = [2, 10]"] ;
393 -> 403 ;
404 [label="Contatos_12_meses <= 0.5\ngini = 0.165\nsamples = 8\nvalue = [1, 10]"] ;
403 -> 404 ;
405 [label="gini = 0.0\nsamples = 1\nvalue = [1, 0]"] ;
404 -> 405 ;
406 [label="gini = 0.0\nsamples = 7\nvalue = [0, 10]"] ;
404 -> 406 ;
407 [label="gini = 0.0\nsamples = 1\nvalue = [1, 0]"] ;
403 -> 407 ;
408 [label="Limite_de_Crédito <= 1533.15\ngini = 0.083\nsamples = 17\nvalue = [22, 1]"] ;
392 -> 408 ;
409 [label="Contagem_Total_de_Transações <= 48.5\ngini = 0.278\nsamples = 4\nvalue = [5, 1]"] ;
408 -> 409 ;
410 [label="gini = 0.0\nsamples = 2\nvalue = [3, 0]"] ;
409 -> 410 ;
411 [label="Nível_de_Educação <= 3.0\ngini = 0.444\nsamples = 2\nvalue = [2, 1]"] ;
409 -> 411 ;
412 [label="gini = 0.0\nsamples = 1\nvalue = [2, 0]"] ;
411 -> 412 ;
413 [label="gini = 0.0\nsamples = 1\nvalue = [0, 1]"] ;
411 -> 413 ;
414 [label="gini = 0.0\nsamples = 13\nvalue = [17, 0]"] ;
408 -> 414 ;
415 [label="Nº_total_de_produtos <= 2.5\ngini = 0.433\nsamples = 67\nvalue = [33, 71]"] ;
387 -> 415 ;
416 [label="gini = 0.0\nsamples = 8\nvalue = [11, 0]"] ;
415 -> 416 ;
417 [label="Idade_do_Cliente <= 47.5\ngini = 0.361\nsamples = 59\nvalue = [22, 71]"] ;
415 -> 417 ;
418 [label="Variação_Ct_Total_Q4_Q1 <= 1.055\ngini = 0.117\nsamples = 18\nvalue = [2, 30]"] ;
417 -> 418 ;
419 [label="gini = 0.0\nsamples = 15\nvalue = [0, 26]"] ;
418 -> 419 ;
420 [label="Limite_de_Crédito <= 6875.5\ngini = 0.444\nsamples = 3\nvalue = [2, 4]"] ;
418 -> 420 ;
421 [label="gini = 0.0\nsamples = 2\nvalue = [2, 0]"] ;
420 -> 421 ;
422 [label="gini = 0.0\nsamples = 1\nvalue = [0, 4]"] ;
420 -> 422 ;
423 [label="Nº_total_de_produtos <= 3.5\ngini = 0.441\nsamples = 41\nvalue = [20, 41]"] ;
417 -> 423 ;
424 [label="Contagem_Total_de_Transações <= 40.5\ngini = 0.498\nsamples = 11\nvalue = [9, 8]"] ;
423 -> 424 ;
425 [label="gini = 0.0\nsamples = 5\nvalue = [0, 6]"] ;
424 -> 425 ;
426 [label="Nível_de_Educação <= 4.5\ngini = 0.298\nsamples = 6\nvalue = [9, 2]"] ;
424 -> 426 ;
427 [label="Valor_Total_Transação <= 1930.5\ngini = 0.18\nsamples = 5\nvalue = [9, 1]"] ;
426 -> 427 ;
428 [label="gini = 0.0\nsamples = 1\nvalue = [0, 1]"] ;
427 -> 428 ;
429 [label="gini = 0.0\nsamples = 4\nvalue = [9, 0]"] ;
427 -> 429 ;
430 [label="gini = 0.0\nsamples = 1\nvalue = [0, 1]"] ;
426 -> 430 ;
431 [label="Período_de_relacionamento_com_o_banco <= 53.5\ngini = 0.375\nsamples = 30\nvalue = [11, 33]"] ;
423 -> 431 ;
432 [label="Alteração_no_valor_da_transação <= 0.654\ngini = 0.337\nsamples = 29\nvalue = [9, 33]"] ;
431 -> 432 ;
433 [label="Limite_Disponível <= 4245.5\ngini = 0.496\nsamples = 9\nvalue = [5, 6]"] ;
432 -> 433 ;
434 [label="gini = 0.0\nsamples = 4\nvalue = [4, 0]"] ;
433 -> 434 ;
435 [label="Valor_Total_Transação <= 1942.0\ngini = 0.245\nsamples = 5\nvalue = [1, 6]"] ;
433 -> 435 ;
436 [label="gini = 0.0\nsamples = 4\nvalue = [0, 6]"] ;
435 -> 436 ;
437 [label="gini = 0.0\nsamples = 1\nvalue = [1, 0]"] ;
435 -> 437 ;
438 [label="Idade_do_Cliente <= 54.5\ngini = 0.225\nsamples = 20\nvalue = [4, 27]"] ;
432 -> 438 ;
439 [label="gini = 0.0\nsamples = 12\nvalue = [0, 18]"] ;
438 -> 439 ;
440 [label="Alteração_no_valor_da_transação <= 0.794\ngini = 0.426\nsamples = 8\nvalue = [4, 9]"] ;
438 -> 440 ;
441 [label="gini = 0.0\nsamples = 2\nvalue = [0, 4]"] ;
440 -> 441 ;
442 [label="Numero_de_Dependentes <= 2.0\ngini = 0.494\nsamples = 6\nvalue = [4, 5]"] ;
440 -> 442 ;
443 [label="Limite_de_Crédito <= 2828.0\ngini = 0.278\nsamples = 4\nvalue = [1, 5]"] ;
442 -> 443 ;
444 [label="Período_de_relacionamento_com_o_banco <= 47.5\ngini = 0.5\nsamples = 2\nvalue = [1, 1]"] ;
443 -> 444 ;
445 [label="gini = 0.0\nsamples = 1\nvalue = [0, 1]"] ;
444 -> 445 ;
446 [label="gini = 0.0\nsamples = 1\nvalue = [1, 0]"] ;
444 -> 446 ;
447 [label="gini = 0.0\nsamples = 2\nvalue = [0, 4]"] ;
443 -> 447 ;
448 [label="gini = 0.0\nsamples = 2\nvalue = [3, 0]"] ;
442 -> 448 ;
449 [label="gini = 0.0\nsamples = 1\nvalue = [2, 0]"] ;
431 -> 449 ;
450 [label="Idade_do_Cliente <= 39.5\ngini = 0.134\nsamples = 309\nvalue = [35, 451]"] ;
386 -> 450 ;
451 [label="Nível_de_Educação <= 2.5\ngini = 0.344\nsamples = 64\nvalue = [21, 74]"] ;
450 -> 451 ;
452 [label="Valor_Total_Transação <= 6116.0\ngini = 0.139\nsamples = 28\nvalue = [3, 37]"] ;
451 -> 452 ;
453 [label="gini = 0.0\nsamples = 21\nvalue = [0, 31]"] ;
452 -> 453 ;
454 [label="Meses_Inativo <= 1.5\ngini = 0.444\nsamples = 7\nvalue = [3, 6]"] ;
452 -> 454 ;
455 [label="gini = 0.0\nsamples = 1\nvalue = [2, 0]"] ;
454 -> 455 ;
456 [label="Limite_Disponível <= 27849.5\ngini = 0.245\nsamples = 6\nvalue = [1, 6]"] ;
454 -> 456 ;
457 [label="gini = 0.0\nsamples = 5\nvalue = [0, 6]"] ;
456 -> 457 ;
458 [label="gini = 0.0\nsamples = 1\nvalue = [1, 0]"] ;
456 -> 458 ;
459 [label="Limite_de_Crédito <= 3604.0\ngini = 0.44\nsamples = 36\nvalue = [18, 37]"] ;
451 -> 459 ;
460 [label="gini = 0.0\nsamples = 16\nvalue = [0, 22]"] ;
459 -> 460 ;
461 [label="Limite_de_Crédito <= 5096.0\ngini = 0.496\nsamples = 20\nvalue = [18, 15]"] ;
459 -> 461 ;
462 [label="gini = 0.0\nsamples = 3\nvalue = [6, 0]"] ;
461 -> 462 ;
463 [label="Contatos_12_meses <= 3.5\ngini = 0.494\nsamples = 17\nvalue = [12, 15]"] ;
461 -> 463 ;
464 [label="Variação_Ct_Total_Q4_Q1 <= 0.65\ngini = 0.42\nsamples = 13\nvalue = [6, 14]"] ;
463 -> 464 ;
465 [label="gini = 0.0\nsamples = 4\nvalue = [0, 5]"] ;
464 -> 465 ;
466 [label="Variação_Ct_Total_Q4_Q1 <= 0.954\ngini = 0.48\nsamples = 9\nvalue = [6, 9]"] ;
464 -> 466 ;
467 [label="Tipo_de_cartão <= 0.5\ngini = 0.496\nsamples = 7\nvalue = [6, 5]"] ;
466 -> 467 ;
468 [label="Alteração_no_valor_da_transação <= 0.748\ngini = 0.408\nsamples = 4\nvalue = [5, 2]"] ;
467 -> 468 ;
469 [label="gini = 0.0\nsamples = 1\nvalue = [0, 2]"] ;
468 -> 469 ;
470 [label="gini = 0.0\nsamples = 3\nvalue = [5, 0]"] ;
468 -> 470 ;
471 [label="Nível_de_Educação <= 5.0\ngini = 0.375\nsamples = 3\nvalue = [1, 3]"] ;
467 -> 471 ;
472 [label="gini = 0.0\nsamples = 2\nvalue = [0, 3]"] ;
471 -> 472 ;
473 [label="gini = 0.0\nsamples = 1\nvalue = [1, 0]"] ;
471 -> 473 ;
474 [label="gini = 0.0\nsamples = 2\nvalue = [0, 4]"] ;
466 -> 474 ;
475 [label="Valor_Total_Transação <= 5977.5\ngini = 0.245\nsamples = 4\nvalue = [6, 1]"] ;
463 -> 475 ;
476 [label="gini = 0.0\nsamples = 1\nvalue = [0, 1]"] ;
475 -> 476 ;
477 [label="gini = 0.0\nsamples = 3\nvalue = [6, 0]"] ;
475 -> 477 ;
478 [label="Contatos_12_meses <= 2.5\ngini = 0.069\nsamples = 245\nvalue = [14, 377]"] ;
450 -> 478 ;
479 [label="Renda_anual <= 1.5\ngini = 0.019\nsamples = 136\nvalue = [2, 211]"] ;
478 -> 479 ;
480 [label="Alteração_no_valor_da_transação <= 1.043\ngini = 0.034\nsamples = 70\nvalue = [2, 112]"] ;
479 -> 480 ;
481 [label="Limite_de_Crédito <= 3231.5\ngini = 0.018\nsamples = 69\nvalue = [1, 112]"] ;
480 -> 481 ;
482 [label="gini = 0.0\nsamples = 37\nvalue = [0, 61]"] ;
481 -> 482 ;
483 [label="Período_de_relacionamento_com_o_banco <= 40.5\ngini = 0.038\nsamples = 32\nvalue = [1, 51]"] ;
481 -> 483 ;
484 [label="gini = 0.0\nsamples = 22\nvalue = [0, 41]"] ;
483 -> 484 ;
485 [label="Nível_de_Educação <= 0.5\ngini = 0.165\nsamples = 10\nvalue = [1, 10]"] ;
483 -> 485 ;
486 [label="gini = 0.0\nsamples = 1\nvalue = [1, 0]"] ;
485 -> 486 ;
487 [label="gini = 0.0\nsamples = 9\nvalue = [0, 10]"] ;
485 -> 487 ;
488 [label="gini = 0.0\nsamples = 1\nvalue = [1, 0]"] ;
480 -> 488 ;
489 [label="gini = 0.0\nsamples = 66\nvalue = [0, 99]"] ;
479 -> 489 ;
490 [label="Valor_Total_Transação <= 7761.5\ngini = 0.126\nsamples = 109\nvalue = [12, 166]"] ;
478 -> 490 ;
491 [label="Valor_Total_Transação <= 2590.0\ngini = 0.012\nsamples = 98\nvalue = [1, 158]"] ;
490 -> 491 ;
492 [label="Limite_Disponível <= 4871.0\ngini = 0.278\nsamples = 4\nvalue = [1, 5]"] ;
491 -> 492 ;
493 [label="gini = 0.0\nsamples = 1\nvalue = [1, 0]"] ;
492 -> 493 ;
494 [label="gini = 0.0\nsamples = 3\nvalue = [0, 5]"] ;
492 -> 494 ;
495 [label="gini = 0.0\nsamples = 94\nvalue = [0, 153]"] ;
491 -> 495 ;
496 [label="Limite_de_Crédito <= 7782.5\ngini = 0.488\nsamples = 11\nvalue = [11, 8]"] ;
490 -> 496 ;
497 [label="gini = 0.0\nsamples = 3\nvalue = [5, 0]"] ;
496 -> 497 ;
498 [label="Contagem_Total_de_Transações <= 87.5\ngini = 0.49\nsamples = 8\nvalue = [6, 8]"] ;
496 -> 498 ;
499 [label="gini = 0.0\nsamples = 3\nvalue = [6, 0]"] ;
498 -> 499 ;
500 [label="gini = 0.0\nsamples = 5\nvalue = [0, 8]"] ;
498 -> 500 ;
501 [label="Contatos_12_meses <= 5.5\ngini = 0.057\nsamples = 1447\nvalue = [66, 2172]"] ;
385 -> 501 ;
502 [label="Período_de_relacionamento_com_o_banco <= 18.5\ngini = 0.053\nsamples = 1443\nvalue = [61, 2172]"] ;
501 -> 502 ;
503 [label="Limite_Disponível <= 1626.5\ngini = 0.38\nsamples = 34\nvalue = [12, 35]"] ;
502 -> 503 ;
504 [label="Contagem_Total_de_Transações <= 45.0\ngini = 0.1\nsamples = 15\nvalue = [1, 18]"] ;
503 -> 504 ;
505 [label="Período_de_relacionamento_com_o_banco <= 15.5\ngini = 0.444\nsamples = 3\nvalue = [1, 2]"] ;
504 -> 505 ;
506 [label="gini = 0.0\nsamples = 2\nvalue = [0, 2]"] ;
505 -> 506 ;
507 [label="gini = 0.0\nsamples = 1\nvalue = [1, 0]"] ;
505 -> 507 ;
508 [label="gini = 0.0\nsamples = 12\nvalue = [0, 16]"] ;
504 -> 508 ;
509 [label="Alteração_no_valor_da_transação <= 0.845\ngini = 0.477\nsamples = 19\nvalue = [11, 17]"] ;
503 -> 509 ;
510 [label="Limite_de_Crédito <= 4324.0\ngini = 0.375\nsamples = 11\nvalue = [4, 12]"] ;
509 -> 510 ;
511 [label="Limite_de_Crédito <= 3516.0\ngini = 0.5\nsamples = 6\nvalue = [4, 4]"] ;
510 -> 511 ;
512 [label="gini = 0.0\nsamples = 3\nvalue = [0, 3]"] ;
511 -> 512 ;
513 [label="Valor_Total_Transação <= 11363.0\ngini = 0.32\nsamples = 3\nvalue = [4, 1]"] ;
511 -> 513 ;
514 [label="gini = 0.0\nsamples = 2\nvalue = [4, 0]"] ;
513 -> 514 ;
515 [label="gini = 0.0\nsamples = 1\nvalue = [0, 1]"] ;
513 -> 515 ;
516 [label="gini = 0.0\nsamples = 5\nvalue = [0, 8]"] ;
510 -> 516 ;
517 [label="Valor_Total_Transação <= 5505.5\ngini = 0.486\nsamples = 8\nvalue = [7, 5]"] ;
509 -> 517 ;
518 [label="gini = 0.0\nsamples = 3\nvalue = [0, 4]"] ;
517 -> 518 ;
519 [label="Período_de_relacionamento_com_o_banco <= 16.0\ngini = 0.219\nsamples = 5\nvalue = [7, 1]"] ;
517 -> 519 ;
520 [label="gini = 0.0\nsamples = 1\nvalue = [0, 1]"] ;
519 -> 520 ;
521 [label="gini = 0.0\nsamples = 4\nvalue = [7, 0]"] ;
519 -> 521 ;
522 [label="Contagem_Total_de_Transações <= 64.5\ngini = 0.044\nsamples = 1409\nvalue = [49, 2137]"] ;
502 -> 522 ;
523 [label="Nº_total_de_produtos <= 2.5\ngini = 0.099\nsamples = 488\nvalue = [39, 706]"] ;
522 -> 523 ;
524 [label="Valor_Total_Transação <= 1585.5\ngini = 0.5\nsamples = 26\nvalue = [20, 21]"] ;
523 -> 524 ;
525 [label="gini = 0.0\nsamples = 6\nvalue = [0, 9]"] ;
524 -> 525 ;
526 [label="Meses_Inativo <= 1.5\ngini = 0.469\nsamples = 20\nvalue = [20, 12]"] ;
524 -> 526 ;
527 [label="gini = 0.0\nsamples = 3\nvalue = [0, 4]"] ;
526 -> 527 ;
528 [label="Limite_de_Crédito <= 7316.0\ngini = 0.408\nsamples = 17\nvalue = [20, 8]"] ;
526 -> 528 ;
529 [label="Contagem_Total_de_Transações <= 56.5\ngini = 0.33\nsamples = 14\nvalue = [19, 5]"] ;
528 -> 529 ;
530 [label="Alteração_no_valor_da_transação <= 1.342\ngini = 0.124\nsamples = 8\nvalue = [14, 1]"] ;
529 -> 530 ;
531 [label="gini = 0.0\nsamples = 7\nvalue = [14, 0]"] ;
530 -> 531 ;
532 [label="gini = 0.0\nsamples = 1\nvalue = [0, 1]"] ;
530 -> 532 ;
533 [label="Valor_Total_Transação <= 6550.5\ngini = 0.494\nsamples = 6\nvalue = [5, 4]"] ;
529 -> 533 ;
534 [label="gini = 0.0\nsamples = 3\nvalue = [0, 4]"] ;
533 -> 534 ;
535 [label="gini = 0.0\nsamples = 3\nvalue = [5, 0]"] ;
533 -> 535 ;
536 [label="Valor_Total_Transação <= 4605.0\ngini = 0.375\nsamples = 3\nvalue = [1, 3]"] ;
528 -> 536 ;
537 [label="gini = 0.0\nsamples = 2\nvalue = [0, 3]"] ;
536 -> 537 ;
538 [label="gini = 0.0\nsamples = 1\nvalue = [1, 0]"] ;
536 -> 538 ;
539 [label="Valor_Total_Transação <= 905.0\ngini = 0.053\nsamples = 462\nvalue = [19, 685]"] ;
523 -> 539 ;
540 [label="Limite_Disponível <= 12830.5\ngini = 0.5\nsamples = 2\nvalue = [2, 2]"] ;
539 -> 540 ;
541 [label="gini = 0.0\nsamples = 1\nvalue = [2, 0]"] ;
540 -> 541 ;
542 [label="gini = 0.0\nsamples = 1\nvalue = [0, 2]"] ;
540 -> 542 ;
543 [label="Valor_Total_Transação <= 2075.0\ngini = 0.047\nsamples = 460\nvalue = [17, 683]"] ;
539 -> 543 ;
544 [label="gini = 0.0\nsamples = 254\nvalue = [0, 390]"] ;
543 -> 544 ;
545 [label="Variação_Ct_Total_Q4_Q1 <= 0.649\ngini = 0.104\nsamples = 206\nvalue = [17, 293]"] ;
543 -> 545 ;
546 [label="Valor_Total_Transação <= 2213.5\ngini = 0.311\nsamples = 30\nvalue = [10, 42]"] ;
545 -> 546 ;
547 [label="gini = 0.0\nsamples = 2\nvalue = [4, 0]"] ;
546 -> 547 ;
548 [label="Saldo_Total_Rotativo <= 2503.5\ngini = 0.219\nsamples = 28\nvalue = [6, 42]"] ;
546 -> 548 ;
549 [label="Contagem_Total_de_Transações <= 58.5\ngini = 0.124\nsamples = 27\nvalue = [3, 42]"] ;
548 -> 549 ;
550 [label="Saldo_Total_Rotativo <= 2090.0\ngini = 0.266\nsamples = 11\nvalue = [3, 16]"] ;
549 -> 550 ;
551 [label="Idade_do_Cliente <= 42.5\ngini = 0.111\nsamples = 10\nvalue = [1, 16]"] ;
550 -> 551 ;
552 [label="gini = 0.0\nsamples = 6\nvalue = [0, 13]"] ;
551 -> 552 ;
553 [label="Taxa_média_de_utilização_do_cartão <= 0.068\ngini = 0.375\nsamples = 4\nvalue = [1, 3]"] ;
551 -> 553 ;
554 [label="gini = 0.0\nsamples = 1\nvalue = [1, 0]"] ;
553 -> 554 ;
555 [label="gini = 0.0\nsamples = 3\nvalue = [0, 3]"] ;
553 -> 555 ;
556 [label="gini = 0.0\nsamples = 1\nvalue = [2, 0]"] ;
550 -> 556 ;
557 [label="gini = 0.0\nsamples = 16\nvalue = [0, 26]"] ;
549 -> 557 ;
558 [label="gini = 0.0\nsamples = 1\nvalue = [3, 0]"] ;
548 -> 558 ;
559 [label="Valor_Total_Transação <= 2081.5\ngini = 0.053\nsamples = 176\nvalue = [7, 251]"] ;
545 -> 559 ;
560 [label="Meses_Inativo <= 1.5\ngini = 0.5\nsamples = 2\nvalue = [1, 1]"] ;
559 -> 560 ;
561 [label="gini = 0.0\nsamples = 1\nvalue = [0, 1]"] ;
560 -> 561 ;
562 [label="gini = 0.0\nsamples = 1\nvalue = [1, 0]"] ;
560 -> 562 ;
563 [label="Meses_Inativo <= 0.5\ngini = 0.046\nsamples = 174\nvalue = [6, 250]"] ;
559 -> 563 ;
564 [label="Contagem_Total_de_Transações <= 55.5\ngini = 0.5\nsamples = 2\nvalue = [1, 1]"] ;
563 -> 564 ;
565 [label="gini = 0.0\nsamples = 1\nvalue = [1, 0]"] ;
564 -> 565 ;
566 [label="gini = 0.0\nsamples = 1\nvalue = [0, 1]"] ;
564 -> 566 ;
567 [label="Saldo_Total_Rotativo <= 577.0\ngini = 0.039\nsamples = 172\nvalue = [5, 249]"] ;
563 -> 567 ;
568 [label="Nível_de_Educação <= 3.0\ngini = 0.444\nsamples = 2\nvalue = [1, 2]"] ;
567 -> 568 ;
569 [label="gini = 0.0\nsamples = 1\nvalue = [1, 0]"] ;
568 -> 569 ;
570 [label="gini = 0.0\nsamples = 1\nvalue = [0, 2]"] ;
568 -> 570 ;
571 [label="Gênero <= 0.5\ngini = 0.031\nsamples = 170\nvalue = [4, 247]"] ;
567 -> 571 ;
572 [label="gini = 0.0\nsamples = 90\nvalue = [0, 131]"] ;
571 -> 572 ;
573 [label="Contatos_12_meses <= 4.5\ngini = 0.064\nsamples = 80\nvalue = [4, 116]"] ;
571 -> 573 ;
574 [label="Contagem_Total_de_Transações <= 41.5\ngini = 0.05\nsamples = 78\nvalue = [3, 114]"] ;
573 -> 574 ;
575 [label="Valor_Total_Transação <= 2523.0\ngini = 0.32\nsamples = 3\nvalue = [1, 4]"] ;
574 -> 575 ;
576 [label="gini = 0.0\nsamples = 2\nvalue = [0, 4]"] ;
575 -> 576 ;
577 [label="gini = 0.0\nsamples = 1\nvalue = [1, 0]"] ;
575 -> 577 ;
578 [label="Saldo_Total_Rotativo <= 2494.5\ngini = 0.035\nsamples = 75\nvalue = [2, 110]"] ;
574 -> 578 ;
579 [label="Limite_Disponível <= 677.0\ngini = 0.019\nsamples = 71\nvalue = [1, 106]"] ;
578 -> 579 ;
580 [label="Nº_total_de_produtos <= 4.5\ngini = 0.105\nsamples = 12\nvalue = [1, 17]"] ;
579 -> 580 ;
581 [label="gini = 0.0\nsamples = 9\nvalue = [0, 14]"] ;
580 -> 581 ;
582 [label="Variação_Ct_Total_Q4_Q1 <= 0.784\ngini = 0.375\nsamples = 3\nvalue = [1, 3]"] ;
580 -> 582 ;
583 [label="gini = 0.0\nsamples = 1\nvalue = [1, 0]"] ;
582 -> 583 ;
584 [label="gini = 0.0\nsamples = 2\nvalue = [0, 3]"] ;
582 -> 584 ;
585 [label="gini = 0.0\nsamples = 59\nvalue = [0, 89]"] ;
579 -> 585 ;
586 [label="Limite_Disponível <= 981.0\ngini = 0.32\nsamples = 4\nvalue = [1, 4]"] ;
578 -> 586 ;
587 [label="gini = 0.0\nsamples = 3\nvalue = [0, 4]"] ;
586 -> 587 ;
588 [label="gini = 0.0\nsamples = 1\nvalue = [1, 0]"] ;
586 -> 588 ;
589 [label="Nº_total_de_produtos <= 3.5\ngini = 0.444\nsamples = 2\nvalue = [1, 2]"] ;
573 -> 589 ;
590 [label="gini = 0.0\nsamples = 1\nvalue = [1, 0]"] ;
589 -> 590 ;
591 [label="gini = 0.0\nsamples = 1\nvalue = [0, 2]"] ;
589 -> 591 ;
592 [label="Saldo_Total_Rotativo <= 535.5\ngini = 0.014\nsamples = 921\nvalue = [10, 1431]"] ;
522 -> 592 ;
593 [label="Contatos_12_meses <= 3.0\ngini = 0.444\nsamples = 7\nvalue = [4, 8]"] ;
592 -> 593 ;
594 [label="gini = 0.0\nsamples = 5\nvalue = [0, 6]"] ;
593 -> 594 ;
595 [label="Limite_de_Crédito <= 11965.5\ngini = 0.444\nsamples = 2\nvalue = [4, 2]"] ;
593 -> 595 ;
596 [label="gini = 0.0\nsamples = 1\nvalue = [4, 0]"] ;
595 -> 596 ;
597 [label="gini = 0.0\nsamples = 1\nvalue = [0, 2]"] ;
595 -> 597 ;
598 [label="Valor_Total_Transação <= 8037.5\ngini = 0.008\nsamples = 914\nvalue = [6, 1423]"] ;
592 -> 598 ;
599 [label="gini = 0.0\nsamples = 699\nvalue = [0, 1095]"] ;
598 -> 599 ;
600 [label="Variação_Ct_Total_Q4_Q1 <= 0.97\ngini = 0.035\nsamples = 215\nvalue = [6, 328]"] ;
598 -> 600 ;
601 [label="Renda_anual <= 0.5\ngini = 0.03\nsamples = 213\nvalue = [5, 327]"] ;
600 -> 601 ;
602 [label="Alteração_no_valor_da_transação <= 0.812\ngini = 0.32\nsamples = 9\nvalue = [3, 12]"] ;
601 -> 602 ;
603 [label="gini = 0.0\nsamples = 6\nvalue = [0, 10]"] ;
602 -> 603 ;
604 [label="Estado_Civil <= 2.5\ngini = 0.48\nsamples = 3\nvalue = [3, 2]"] ;
602 -> 604 ;
605 [label="gini = 0.0\nsamples = 2\nvalue = [0, 2]"] ;
604 -> 605 ;
606 [label="gini = 0.0\nsamples = 1\nvalue = [3, 0]"] ;
604 -> 606 ;
607 [label="Saldo_Total_Rotativo <= 1061.5\ngini = 0.013\nsamples = 204\nvalue = [2, 315]"] ;
601 -> 607 ;
608 [label="Alteração_no_valor_da_transação <= 1.013\ngini = 0.1\nsamples = 26\nvalue = [2, 36]"] ;
607 -> 608 ;
609 [label="gini = 0.0\nsamples = 25\nvalue = [0, 36]"] ;
608 -> 609 ;
610 [label="gini = 0.0\nsamples = 1\nvalue = [2, 0]"] ;
608 -> 610 ;
611 [label="gini = 0.0\nsamples = 178\nvalue = [0, 279]"] ;
607 -> 611 ;
612 [label="Saldo_Total_Rotativo <= 1611.0\ngini = 0.5\nsamples = 2\nvalue = [1, 1]"] ;
600 -> 612 ;
613 [label="gini = 0.0\nsamples = 1\nvalue = [0, 1]"] ;
612 -> 613 ;
614 [label="gini = 0.0\nsamples = 1\nvalue = [1, 0]"] ;
612 -> 614 ;
615 [label="gini = 0.0\nsamples = 4\nvalue = [5, 0]"] ;
501 -> 615 ;
616 [label="Saldo_Total_Rotativo <= 564.5\ngini = 0.218\nsamples = 1481\nvalue = [298, 2092]"] ;
384 -> 616 ;
617 [label="Saldo_Total_Rotativo <= 109.5\ngini = 0.437\nsamples = 371\nvalue = [194, 407]"] ;
616 -> 617 ;
618 [label="Contatos_12_meses <= 2.5\ngini = 0.411\nsamples = 343\nvalue = [161, 397]"] ;
617 -> 618 ;
619 [label="Estado_Civil <= 0.5\ngini = 0.313\nsamples = 177\nvalue = [58, 241]"] ;
618 -> 619 ;
620 [label="Contagem_Total_de_Transações <= 44.5\ngini = 0.253\nsamples = 89\nvalue = [23, 132]"] ;
619 -> 620 ;
621 [label="Contagem_Total_de_Transações <= 31.5\ngini = 0.413\nsamples = 14\nvalue = [17, 7]"] ;
620 -> 621 ;
622 [label="Idade_do_Cliente <= 41.0\ngini = 0.5\nsamples = 5\nvalue = [5, 5]"] ;
621 -> 622 ;
623 [label="gini = 0.0\nsamples = 1\nvalue = [0, 3]"] ;
622 -> 623 ;
624 [label="Alteração_no_valor_da_transação <= 0.816\ngini = 0.408\nsamples = 4\nvalue = [5, 2]"] ;
622 -> 624 ;
625 [label="gini = 0.0\nsamples = 1\nvalue = [3, 0]"] ;
624 -> 625 ;
626 [label="Variação_Ct_Total_Q4_Q1 <= 0.602\ngini = 0.5\nsamples = 3\nvalue = [2, 2]"] ;
624 -> 626 ;
627 [label="gini = 0.0\nsamples = 1\nvalue = [0, 2]"] ;
626 -> 627 ;
628 [label="gini = 0.0\nsamples = 2\nvalue = [2, 0]"] ;
626 -> 628 ;
629 [label="Numero_de_Dependentes <= 2.5\ngini = 0.245\nsamples = 9\nvalue = [12, 2]"] ;
621 -> 629 ;
630 [label="Nível_de_Educação <= 3.0\ngini = 0.444\nsamples = 5\nvalue = [4, 2]"] ;
629 -> 630 ;
631 [label="gini = 0.0\nsamples = 2\nvalue = [3, 0]"] ;
630 -> 631 ;
632 [label="Limite_de_Crédito <= 6716.5\ngini = 0.444\nsamples = 3\nvalue = [1, 2]"] ;
630 -> 632 ;
633 [label="gini = 0.0\nsamples = 1\nvalue = [1, 0]"] ;
632 -> 633 ;
634 [label="gini = 0.0\nsamples = 2\nvalue = [0, 2]"] ;
632 -> 634 ;
635 [label="gini = 0.0\nsamples = 4\nvalue = [8, 0]"] ;
629 -> 635 ;
636 [label="Nº_total_de_produtos <= 1.5\ngini = 0.087\nsamples = 75\nvalue = [6, 125]"] ;
620 -> 636 ;
637 [label="Meses_Inativo <= 3.5\ngini = 0.346\nsamples = 7\nvalue = [4, 14]"] ;
636 -> 637 ;
638 [label="gini = 0.0\nsamples = 5\nvalue = [0, 11]"] ;
637 -> 638 ;
639 [label="Limite_de_Crédito <= 5034.0\ngini = 0.49\nsamples = 2\nvalue = [4, 3]"] ;
637 -> 639 ;
640 [label="gini = 0.0\nsamples = 1\nvalue = [0, 3]"] ;
639 -> 640 ;
641 [label="gini = 0.0\nsamples = 1\nvalue = [4, 0]"] ;
639 -> 641 ;
642 [label="Gênero <= 0.5\ngini = 0.035\nsamples = 68\nvalue = [2, 111]"] ;
636 -> 642 ;
643 [label="gini = 0.0\nsamples = 19\nvalue = [0, 35]"] ;
642 -> 643 ;
644 [label="Nível_de_Educação <= 3.5\ngini = 0.05\nsamples = 49\nvalue = [2, 76]"] ;
642 -> 644 ;
645 [label="gini = 0.0\nsamples = 26\nvalue = [0, 44]"] ;
644 -> 645 ;
646 [label="Valor_Total_Transação <= 2992.0\ngini = 0.111\nsamples = 23\nvalue = [2, 32]"] ;
644 -> 646 ;
647 [label="Contagem_Total_de_Transações <= 48.0\ngini = 0.5\nsamples = 3\nvalue = [2, 2]"] ;
646 -> 647 ;
648 [label="gini = 0.0\nsamples = 1\nvalue = [0, 2]"] ;
647 -> 648 ;
649 [label="gini = 0.0\nsamples = 2\nvalue = [2, 0]"] ;
647 -> 649 ;
650 [label="gini = 0.0\nsamples = 20\nvalue = [0, 30]"] ;
646 -> 650 ;
651 [label="Variação_Ct_Total_Q4_Q1 <= 0.768\ngini = 0.368\nsamples = 88\nvalue = [35, 109]"] ;
619 -> 651 ;
652 [label="Idade_do_Cliente <= 58.5\ngini = 0.251\nsamples = 39\nvalue = [10, 58]"] ;
651 -> 652 ;
653 [label="Limite_Disponível <= 17996.0\ngini = 0.18\nsamples = 34\nvalue = [6, 54]"] ;
652 -> 653 ;
654 [label="Contagem_Total_de_Transações <= 55.0\ngini = 0.158\nsamples = 32\nvalue = [5, 53]"] ;
653 -> 654 ;
655 [label="gini = 0.0\nsamples = 3\nvalue = [4, 0]"] ;
654 -> 655 ;
656 [label="Nº_total_de_produtos <= 2.5\ngini = 0.036\nsamples = 29\nvalue = [1, 53]"] ;
654 -> 656 ;
657 [label="Alteração_no_valor_da_transação <= 0.927\ngini = 0.1\nsamples = 11\nvalue = [1, 18]"] ;
656 -> 657 ;
658 [label="gini = 0.0\nsamples = 9\nvalue = [0, 16]"] ;
657 -> 658 ;
659 [label="Nível_de_Educação <= 2.5\ngini = 0.444\nsamples = 2\nvalue = [1, 2]"] ;
657 -> 659 ;
660 [label="gini = 0.0\nsamples = 1\nvalue = [0, 2]"] ;
659 -> 660 ;
661 [label="gini = 0.0\nsamples = 1\nvalue = [1, 0]"] ;
659 -> 661 ;
662 [label="gini = 0.0\nsamples = 18\nvalue = [0, 35]"] ;
656 -> 662 ;
663 [label="Nº_total_de_produtos <= 4.0\ngini = 0.5\nsamples = 2\nvalue = [1, 1]"] ;
653 -> 663 ;
664 [label="gini = 0.0\nsamples = 1\nvalue = [1, 0]"] ;
663 -> 664 ;
665 [label="gini = 0.0\nsamples = 1\nvalue = [0, 1]"] ;
663 -> 665 ;
666 [label="Nível_de_Educação <= 5.0\ngini = 0.5\nsamples = 5\nvalue = [4, 4]"] ;
652 -> 666 ;
667 [label="Variação_Ct_Total_Q4_Q1 <= 0.713\ngini = 0.32\nsamples = 4\nvalue = [1, 4]"] ;
666 -> 667 ;
668 [label="gini = 0.0\nsamples = 3\nvalue = [0, 4]"] ;
667 -> 668 ;
669 [label="gini = 0.0\nsamples = 1\nvalue = [1, 0]"] ;
667 -> 669 ;
670 [label="gini = 0.0\nsamples = 1\nvalue = [3, 0]"] ;
666 -> 670 ;
671 [label="Nº_total_de_produtos <= 2.5\ngini = 0.441\nsamples = 49\nvalue = [25, 51]"] ;
651 -> 671 ;
672 [label="Valor_Total_Transação <= 3269.0\ngini = 0.49\nsamples = 13\nvalue = [12, 9]"] ;
671 -> 672 ;
673 [label="gini = 0.0\nsamples = 5\nvalue = [9, 0]"] ;
672 -> 673 ;
674 [label="Contagem_Total_de_Transações <= 70.5\ngini = 0.375\nsamples = 8\nvalue = [3, 9]"] ;
672 -> 674 ;
675 [label="gini = 0.0\nsamples = 2\nvalue = [3, 0]"] ;
674 -> 675 ;
676 [label="gini = 0.0\nsamples = 6\nvalue = [0, 9]"] ;
674 -> 676 ;
677 [label="Valor_Total_Transação <= 5727.0\ngini = 0.361\nsamples = 36\nvalue = [13, 42]"] ;
671 -> 677 ;
678 [label="Nível_de_Educação <= 2.5\ngini = 0.162\nsamples = 31\nvalue = [4, 41]"] ;
677 -> 678 ;
679 [label="Nº_total_de_produtos <= 4.5\ngini = 0.346\nsamples = 12\nvalue = [4, 14]"] ;
678 -> 679 ;
680 [label="gini = 0.0\nsamples = 8\nvalue = [0, 12]"] ;
679 -> 680 ;
681 [label="Período_de_relacionamento_com_o_banco <= 39.5\ngini = 0.444\nsamples = 4\nvalue = [4, 2]"] ;
679 -> 681 ;
682 [label="gini = 0.0\nsamples = 2\nvalue = [0, 2]"] ;
681 -> 682 ;
683 [label="gini = 0.0\nsamples = 2\nvalue = [4, 0]"] ;
681 -> 683 ;
684 [label="gini = 0.0\nsamples = 19\nvalue = [0, 27]"] ;
678 -> 684 ;
685 [label="Limite_Disponível <= 19257.0\ngini = 0.18\nsamples = 5\nvalue = [9, 1]"] ;
677 -> 685 ;
686 [label="gini = 0.0\nsamples = 4\nvalue = [9, 0]"] ;
685 -> 686 ;
687 [label="gini = 0.0\nsamples = 1\nvalue = [0, 1]"] ;
685 -> 687 ;
688 [label="Nº_total_de_produtos <= 2.5\ngini = 0.479\nsamples = 166\nvalue = [103, 156]"] ;
618 -> 688 ;
689 [label="Contatos_12_meses <= 3.5\ngini = 0.302\nsamples = 34\nvalue = [44, 10]"] ;
688 -> 689 ;
690 [label="Limite_Disponível <= 4567.0\ngini = 0.408\nsamples = 24\nvalue = [25, 10]"] ;
689 -> 690 ;
691 [label="Período_de_relacionamento_com_o_banco <= 31.5\ngini = 0.231\nsamples = 10\nvalue = [13, 2]"] ;
690 -> 691 ;
692 [label="gini = 0.0\nsamples = 1\nvalue = [0, 1]"] ;
691 -> 692 ;
693 [label="Valor_Total_Transação <= 3905.0\ngini = 0.133\nsamples = 9\nvalue = [13, 1]"] ;
691 -> 693 ;
694 [label="gini = 0.0\nsamples = 6\nvalue = [7, 0]"] ;
693 -> 694 ;
695 [label="Renda_anual <= 2.0\ngini = 0.245\nsamples = 3\nvalue = [6, 1]"] ;
693 -> 695 ;
696 [label="gini = 0.0\nsamples = 1\nvalue = [0, 1]"] ;
695 -> 696 ;
697 [label="gini = 0.0\nsamples = 2\nvalue = [6, 0]"] ;
695 -> 697 ;
698 [label="Limite_de_Crédito <= 5423.0\ngini = 0.48\nsamples = 14\nvalue = [12, 8]"] ;
690 -> 698 ;
699 [label="gini = 0.0\nsamples = 2\nvalue = [0, 3]"] ;
698 -> 699 ;
700 [label="Nível_de_Educação <= 1.5\ngini = 0.415\nsamples = 12\nvalue = [12, 5]"] ;
698 -> 700 ;
701 [label="gini = 0.0\nsamples = 2\nvalue = [0, 4]"] ;
700 -> 701 ;
702 [label="Contagem_Total_de_Transações <= 87.5\ngini = 0.142\nsamples = 10\nvalue = [12, 1]"] ;
700 -> 702 ;
703 [label="gini = 0.0\nsamples = 9\nvalue = [12, 0]"] ;
702 -> 703 ;
704 [label="gini = 0.0\nsamples = 1\nvalue = [0, 1]"] ;
702 -> 704 ;
705 [label="gini = 0.0\nsamples = 10\nvalue = [19, 0]"] ;
689 -> 705 ;
706 [label="Valor_Total_Transação <= 5333.5\ngini = 0.41\nsamples = 132\nvalue = [59, 146]"] ;
688 -> 706 ;
707 [label="Valor_Total_Transação <= 2921.0\ngini = 0.333\nsamples = 115\nvalue = [38, 142]"] ;
706 -> 707 ;
708 [label="Nº_total_de_produtos <= 3.5\ngini = 0.5\nsamples = 44\nvalue = [36, 34]"] ;
707 -> 708 ;
709 [label="Numero_de_Dependentes <= 3.5\ngini = 0.408\nsamples = 18\nvalue = [20, 8]"] ;
708 -> 709 ;
710 [label="Alteração_no_valor_da_transação <= 0.954\ngini = 0.308\nsamples = 15\nvalue = [17, 4]"] ;
709 -> 710 ;
711 [label="Idade_do_Cliente <= 33.0\ngini = 0.255\nsamples = 14\nvalue = [17, 3]"] ;
710 -> 711 ;
712 [label="gini = 0.0\nsamples = 1\nvalue = [0, 1]"] ;
711 -> 712 ;
713 [label="Valor_Total_Transação <= 1471.0\ngini = 0.188\nsamples = 13\nvalue = [17, 2]"] ;
711 -> 713 ;
714 [label="gini = 0.0\nsamples = 1\nvalue = [0, 1]"] ;
713 -> 714 ;
715 [label="Alteração_no_valor_da_transação <= 0.604\ngini = 0.105\nsamples = 12\nvalue = [17, 1]"] ;
713 -> 715 ;
716 [label="Período_de_relacionamento_com_o_banco <= 39.5\ngini = 0.245\nsamples = 5\nvalue = [6, 1]"] ;
715 -> 716 ;
717 [label="gini = 0.0\nsamples = 4\nvalue = [6, 0]"] ;
716 -> 717 ;
718 [label="gini = 0.0\nsamples = 1\nvalue = [0, 1]"] ;
716 -> 718 ;
719 [label="gini = 0.0\nsamples = 7\nvalue = [11, 0]"] ;
715 -> 719 ;
720 [label="gini = 0.0\nsamples = 1\nvalue = [0, 1]"] ;
710 -> 720 ;
721 [label="Limite_Disponível <= 17421.65\ngini = 0.49\nsamples = 3\nvalue = [3, 4]"] ;
709 -> 721 ;
722 [label="gini = 0.0\nsamples = 1\nvalue = [3, 0]"] ;
721 -> 722 ;
723 [label="gini = 0.0\nsamples = 2\nvalue = [0, 4]"] ;
721 -> 723 ;
724 [label="Tipo_de_cartão <= 1.5\ngini = 0.472\nsamples = 26\nvalue = [16, 26]"] ;
708 -> 724 ;
725 [label="Numero_de_Dependentes <= 2.5\ngini = 0.432\nsamples = 25\nvalue = [12, 26]"] ;
724 -> 725 ;
726 [label="Idade_do_Cliente <= 58.0\ngini = 0.278\nsamples = 17\nvalue = [4, 20]"] ;
725 -> 726 ;
727 [label="Limite_de_Crédito <= 2062.5\ngini = 0.105\nsamples = 13\nvalue = [1, 17]"] ;
726 -> 727 ;
728 [label="Alteração_no_valor_da_transação <= 0.649\ngini = 0.5\nsamples = 2\nvalue = [1, 1]"] ;
727 -> 728 ;
729 [label="gini = 0.0\nsamples = 1\nvalue = [1, 0]"] ;
728 -> 729 ;
730 [label="gini = 0.0\nsamples = 1\nvalue = [0, 1]"] ;
728 -> 730 ;
731 [label="gini = 0.0\nsamples = 11\nvalue = [0, 16]"] ;
727 -> 731 ;
732 [label="Estado_Civil <= 2.0\ngini = 0.5\nsamples = 4\nvalue = [3, 3]"] ;
726 -> 732 ;
733 [label="Período_de_relacionamento_com_o_banco <= 50.0\ngini = 0.375\nsamples = 3\nvalue = [1, 3]"] ;
732 -> 733 ;
734 [label="gini = 0.0\nsamples = 1\nvalue = [0, 2]"] ;
733 -> 734 ;
735 [label="Renda_anual <= 2.0\ngini = 0.5\nsamples = 2\nvalue = [1, 1]"] ;
733 -> 735 ;
736 [label="gini = 0.0\nsamples = 1\nvalue = [1, 0]"] ;
735 -> 736 ;
737 [label="gini = 0.0\nsamples = 1\nvalue = [0, 1]"] ;
735 -> 737 ;
738 [label="gini = 0.0\nsamples = 1\nvalue = [2, 0]"] ;
732 -> 738 ;
739 [label="Valor_Total_Transação <= 1907.5\ngini = 0.49\nsamples = 8\nvalue = [8, 6]"] ;
725 -> 739 ;
740 [label="Alteração_no_valor_da_transação <= 0.645\ngini = 0.375\nsamples = 5\nvalue = [2, 6]"] ;
739 -> 740 ;
741 [label="gini = 0.0\nsamples = 1\nvalue = [2, 0]"] ;
740 -> 741 ;
742 [label="gini = 0.0\nsamples = 4\nvalue = [0, 6]"] ;
740 -> 742 ;
743 [label="gini = 0.0\nsamples = 3\nvalue = [6, 0]"] ;
739 -> 743 ;
744 [label="gini = 0.0\nsamples = 1\nvalue = [4, 0]"] ;
724 -> 744 ;
745 [label="Numero_de_Dependentes <= 1.5\ngini = 0.036\nsamples = 71\nvalue = [2, 108]"] ;
707 -> 745 ;
746 [label="Idade_do_Cliente <= 44.0\ngini = 0.114\nsamples = 20\nvalue = [2, 31]"] ;
745 -> 746 ;
747 [label="Contagem_Total_de_Transações <= 57.5\ngini = 0.278\nsamples = 5\nvalue = [2, 10]"] ;
746 -> 747 ;
748 [label="gini = 0.0\nsamples = 1\nvalue = [2, 0]"] ;
747 -> 748 ;
749 [label="gini = 0.0\nsamples = 4\nvalue = [0, 10]"] ;
747 -> 749 ;
750 [label="gini = 0.0\nsamples = 15\nvalue = [0, 21]"] ;
746 -> 750 ;
751 [label="gini = 0.0\nsamples = 51\nvalue = [0, 77]"] ;
745 -> 751 ;
752 [label="Gênero <= 0.5\ngini = 0.269\nsamples = 17\nvalue = [21, 4]"] ;
706 -> 752 ;
753 [label="Limite_de_Crédito <= 10954.5\ngini = 0.375\nsamples = 11\nvalue = [12, 4]"] ;
752 -> 753 ;
754 [label="Idade_do_Cliente <= 49.5\ngini = 0.32\nsamples = 4\nvalue = [1, 4]"] ;
753 -> 754 ;
755 [label="gini = 0.0\nsamples = 3\nvalue = [0, 4]"] ;
754 -> 755 ;
756 [label="gini = 0.0\nsamples = 1\nvalue = [1, 0]"] ;
754 -> 756 ;
757 [label="gini = 0.0\nsamples = 7\nvalue = [11, 0]"] ;
753 -> 757 ;
758 [label="gini = 0.0\nsamples = 6\nvalue = [9, 0]"] ;
752 -> 758 ;
759 [label="Limite_de_Crédito <= 1953.0\ngini = 0.357\nsamples = 28\nvalue = [33, 10]"] ;
617 -> 759 ;
760 [label="Valor_Total_Transação <= 2655.0\ngini = 0.444\nsamples = 7\nvalue = [3, 6]"] ;
759 -> 760 ;
761 [label="gini = 0.0\nsamples = 3\nvalue = [3, 0]"] ;
760 -> 761 ;
762 [label="gini = 0.0\nsamples = 4\nvalue = [0, 6]"] ;
760 -> 762 ;
763 [label="Contagem_Total_de_Transações <= 87.5\ngini = 0.208\nsamples = 21\nvalue = [30, 4]"] ;
759 -> 763 ;
764 [label="Nível_de_Educação <= 5.0\ngini = 0.165\nsamples = 20\nvalue = [30, 3]"] ;
763 -> 764 ;
765 [label="Contatos_12_meses <= 2.5\ngini = 0.121\nsamples = 18\nvalue = [29, 2]"] ;
764 -> 765 ;
766 [label="Taxa_média_de_utilização_do_cartão <= 0.133\ngini = 0.48\nsamples = 4\nvalue = [3, 2]"] ;
765 -> 766 ;
767 [label="gini = 0.0\nsamples = 2\nvalue = [3, 0]"] ;
766 -> 767 ;
768 [label="gini = 0.0\nsamples = 2\nvalue = [0, 2]"] ;
766 -> 768 ;
769 [label="gini = 0.0\nsamples = 14\nvalue = [26, 0]"] ;
765 -> 769 ;
770 [label="Contagem_Total_de_Transações <= 54.5\ngini = 0.5\nsamples = 2\nvalue = [1, 1]"] ;
764 -> 770 ;
771 [label="gini = 0.0\nsamples = 1\nvalue = [1, 0]"] ;
770 -> 771 ;
772 [label="gini = 0.0\nsamples = 1\nvalue = [0, 1]"] ;
770 -> 772 ;
773 [label="gini = 0.0\nsamples = 1\nvalue = [0, 1]"] ;
763 -> 773 ;
774 [label="Taxa_média_de_utilização_do_cartão <= 0.975\ngini = 0.11\nsamples = 1110\nvalue = [104, 1685]"] ;
616 -> 774 ;
775 [label="Contatos_12_meses <= 4.5\ngini = 0.105\nsamples = 1105\nvalue = [99, 1680]"] ;
774 -> 775 ;
776 [label="Contagem_Total_de_Transações <= 66.5\ngini = 0.1\nsamples = 1084\nvalue = [92, 1657]"] ;
775 -> 776 ;
777 [label="Tipo_de_cartão <= 0.5\ngini = 0.197\nsamples = 421\nvalue = [73, 587]"] ;
776 -> 777 ;
778 [label="Variação_Ct_Total_Q4_Q1 <= 0.701\ngini = 0.173\nsamples = 406\nvalue = [60, 568]"] ;
777 -> 778 ;
779 [label="Nº_total_de_produtos <= 2.5\ngini = 0.307\nsamples = 130\nvalue = [38, 163]"] ;
778 -> 779 ;
780 [label="Valor_Total_Transação <= 3109.5\ngini = 0.278\nsamples = 11\nvalue = [15, 3]"] ;
779 -> 780 ;
781 [label="gini = 0.0\nsamples = 7\nvalue = [10, 0]"] ;
780 -> 781 ;
782 [label="Limite_de_Crédito <= 3571.0\ngini = 0.469\nsamples = 4\nvalue = [5, 3]"] ;
780 -> 782 ;
783 [label="gini = 0.0\nsamples = 1\nvalue = [0, 2]"] ;
782 -> 783 ;
784 [label="Taxa_média_de_utilização_do_cartão <= 0.362\ngini = 0.278\nsamples = 3\nvalue = [5, 1]"] ;
782 -> 784 ;
785 [label="gini = 0.0\nsamples = 1\nvalue = [0, 1]"] ;
784 -> 785 ;
786 [label="gini = 0.0\nsamples = 2\nvalue = [5, 0]"] ;
784 -> 786 ;
787 [label="Limite_Disponível <= 551.65\ngini = 0.22\nsamples = 119\nvalue = [23, 160]"] ;
779 -> 787 ;
788 [label="Estado_Civil <= 1.5\ngini = 0.477\nsamples = 19\nvalue = [11, 17]"] ;
787 -> 788 ;
789 [label="Nível_de_Educação <= 1.5\ngini = 0.32\nsamples = 13\nvalue = [4, 16]"] ;
788 -> 789 ;
790 [label="Renda_anual <= 2.0\ngini = 0.48\nsamples = 4\nvalue = [3, 2]"] ;
789 -> 790 ;
791 [label="gini = 0.0\nsamples = 1\nvalue = [0, 1]"] ;
790 -> 791 ;
792 [label="Nº_total_de_produtos <= 5.0\ngini = 0.375\nsamples = 3\nvalue = [3, 1]"] ;
790 -> 792 ;
793 [label="gini = 0.0\nsamples = 1\nvalue = [0, 1]"] ;
792 -> 793 ;
794 [label="gini = 0.0\nsamples = 2\nvalue = [3, 0]"] ;
792 -> 794 ;
795 [label="Variação_Ct_Total_Q4_Q1 <= 0.617\ngini = 0.124\nsamples = 9\nvalue = [1, 14]"] ;
789 -> 795 ;
796 [label="gini = 0.0\nsamples = 1\nvalue = [1, 0]"] ;
795 -> 796 ;
797 [label="gini = 0.0\nsamples = 8\nvalue = [0, 14]"] ;
795 -> 797 ;
798 [label="Variação_Ct_Total_Q4_Q1 <= 0.66\ngini = 0.219\nsamples = 6\nvalue = [7, 1]"] ;
788 -> 798 ;
799 [label="gini = 0.0\nsamples = 3\nvalue = [4, 0]"] ;
798 -> 799 ;
800 [label="Contagem_Total_de_Transações <= 37.5\ngini = 0.375\nsamples = 3\nvalue = [3, 1]"] ;
798 -> 800 ;
801 [label="gini = 0.0\nsamples = 1\nvalue = [0, 1]"] ;
800 -> 801 ;
802 [label="gini = 0.0\nsamples = 2\nvalue = [3, 0]"] ;
800 -> 802 ;
803 [label="Valor_Total_Transação <= 2043.0\ngini = 0.143\nsamples = 100\nvalue = [12, 143]"] ;
787 -> 803 ;
804 [label="gini = 0.0\nsamples = 45\nvalue = [0, 71]"] ;
803 -> 804 ;
805 [label="Saldo_Total_Rotativo <= 2504.0\ngini = 0.245\nsamples = 55\nvalue = [12, 72]"] ;
803 -> 805 ;
806 [label="Contagem_Total_de_Transações <= 51.5\ngini = 0.163\nsamples = 50\nvalue = [7, 71]"] ;
805 -> 806 ;
807 [label="Valor_Total_Transação <= 2314.5\ngini = 0.484\nsamples = 11\nvalue = [7, 10]"] ;
806 -> 807 ;
808 [label="Contatos_12_meses <= 3.5\ngini = 0.346\nsamples = 4\nvalue = [7, 2]"] ;
807 -> 808 ;
809 [label="gini = 0.0\nsamples = 3\nvalue = [7, 0]"] ;
808 -> 809 ;
810 [label="gini = 0.0\nsamples = 1\nvalue = [0, 2]"] ;
808 -> 810 ;
811 [label="gini = 0.0\nsamples = 7\nvalue = [0, 8]"] ;
807 -> 811 ;
812 [label="gini = 0.0\nsamples = 39\nvalue = [0, 61]"] ;
806 -> 812 ;
813 [label="Idade_do_Cliente <= 52.0\ngini = 0.278\nsamples = 5\nvalue = [5, 1]"] ;
805 -> 813 ;
814 [label="gini = 0.0\nsamples = 4\nvalue = [5, 0]"] ;
813 -> 814 ;
815 [label="gini = 0.0\nsamples = 1\nvalue = [0, 1]"] ;
813 -> 815 ;
816 [label="Limite_Disponível <= 538.0\ngini = 0.098\nsamples = 276\nvalue = [22, 405]"] ;
778 -> 816 ;
817 [label="Valor_Total_Transação <= 1011.5\ngini = 0.307\nsamples = 23\nvalue = [7, 30]"] ;
816 -> 817 ;
818 [label="gini = 0.0\nsamples = 1\nvalue = [2, 0]"] ;
817 -> 818 ;
819 [label="Alteração_no_valor_da_transação <= 0.487\ngini = 0.245\nsamples = 22\nvalue = [5, 30]"] ;
817 -> 819 ;
820 [label="gini = 0.0\nsamples = 1\nvalue = [1, 0]"] ;
819 -> 820 ;
821 [label="Nº_total_de_produtos <= 4.5\ngini = 0.208\nsamples = 21\nvalue = [4, 30]"] ;
819 -> 821 ;
822 [label="Saldo_Total_Rotativo <= 1095.0\ngini = 0.069\nsamples = 16\nvalue = [1, 27]"] ;
821 -> 822 ;
823 [label="gini = 0.0\nsamples = 1\nvalue = [1, 0]"] ;
822 -> 823 ;
824 [label="gini = 0.0\nsamples = 15\nvalue = [0, 27]"] ;
822 -> 824 ;
825 [label="Variação_Ct_Total_Q4_Q1 <= 0.859\ngini = 0.5\nsamples = 5\nvalue = [3, 3]"] ;
821 -> 825 ;
826 [label="gini = 0.0\nsamples = 3\nvalue = [3, 0]"] ;
825 -> 826 ;
827 [label="gini = 0.0\nsamples = 2\nvalue = [0, 3]"] ;
825 -> 827 ;
828 [label="Valor_Total_Transação <= 6673.0\ngini = 0.074\nsamples = 253\nvalue = [15, 375]"] ;
816 -> 828 ;
829 [label="Valor_Total_Transação <= 821.5\ngini = 0.051\nsamples = 249\nvalue = [10, 375]"] ;
828 -> 829 ;
830 [label="gini = 0.0\nsamples = 1\nvalue = [2, 0]"] ;
829 -> 830 ;
831 [label="Numero_de_Dependentes <= 4.5\ngini = 0.041\nsamples = 248\nvalue = [8, 375]"] ;
829 -> 831 ;
832 [label="Limite_Disponível <= 3746.5\ngini = 0.037\nsamples = 242\nvalue = [7, 369]"] ;
831 -> 832 ;
833 [label="Limite_de_Crédito <= 6225.5\ngini = 0.07\nsamples = 121\nvalue = [7, 186]"] ;
832 -> 833 ;
834 [label="Limite_de_Crédito <= 4839.0\ngini = 0.061\nsamples = 120\nvalue = [6, 186]"] ;
833 -> 834 ;
835 [label="Taxa_média_de_utilização_do_cartão <= 0.3\ngini = 0.033\nsamples = 110\nvalue = [3, 175]"] ;
834 -> 835 ;
836 [label="Nível_de_Educação <= 1.5\ngini = 0.198\nsamples = 12\nvalue = [2, 16]"] ;
835 -> 836 ;
837 [label="Limite_de_Crédito <= 3646.5\ngini = 0.444\nsamples = 2\nvalue = [2, 1]"] ;
836 -> 837 ;
838 [label="gini = 0.0\nsamples = 1\nvalue = [2, 0]"] ;
837 -> 838 ;
839 [label="gini = 0.0\nsamples = 1\nvalue = [0, 1]"] ;
837 -> 839 ;
840 [label="gini = 0.0\nsamples = 10\nvalue = [0, 15]"] ;
836 -> 840 ;
841 [label="Alteração_no_valor_da_transação <= 0.498\ngini = 0.012\nsamples = 98\nvalue = [1, 159]"] ;
835 -> 841 ;
842 [label="Nº_total_de_produtos <= 3.5\ngini = 0.245\nsamples = 3\nvalue = [1, 6]"] ;
841 -> 842 ;
843 [label="gini = 0.0\nsamples = 1\nvalue = [1, 0]"] ;
842 -> 843 ;
844 [label="gini = 0.0\nsamples = 2\nvalue = [0, 6]"] ;
842 -> 844 ;
845 [label="gini = 0.0\nsamples = 95\nvalue = [0, 153]"] ;
841 -> 845 ;
846 [label="Limite_de_Crédito <= 5072.0\ngini = 0.337\nsamples = 10\nvalue = [3, 11]"] ;
834 -> 846 ;
847 [label="Limite_de_Crédito <= 4977.0\ngini = 0.375\nsamples = 3\nvalue = [3, 1]"] ;
846 -> 847 ;
848 [label="Renda_anual <= 2.0\ngini = 0.5\nsamples = 2\nvalue = [1, 1]"] ;
847 -> 848 ;
849 [label="gini = 0.0\nsamples = 1\nvalue = [1, 0]"] ;
848 -> 849 ;
850 [label="gini = 0.0\nsamples = 1\nvalue = [0, 1]"] ;
848 -> 850 ;
851 [label="gini = 0.0\nsamples = 1\nvalue = [2, 0]"] ;
847 -> 851 ;
852 [label="gini = 0.0\nsamples = 7\nvalue = [0, 10]"] ;
846 -> 852 ;
853 [label="gini = 0.0\nsamples = 1\nvalue = [1, 0]"] ;
833 -> 853 ;
854 [label="gini = 0.0\nsamples = 121\nvalue = [0, 183]"] ;
832 -> 854 ;
855 [label="Renda_anual <= 2.5\ngini = 0.245\nsamples = 6\nvalue = [1, 6]"] ;
831 -> 855 ;
856 [label="gini = 0.0\nsamples = 4\nvalue = [0, 5]"] ;
855 -> 856 ;
857 [label="Limite_de_Crédito <= 7415.0\ngini = 0.5\nsamples = 2\nvalue = [1, 1]"] ;
855 -> 857 ;
858 [label="gini = 0.0\nsamples = 1\nvalue = [1, 0]"] ;
857 -> 858 ;
859 [label="gini = 0.0\nsamples = 1\nvalue = [0, 1]"] ;
857 -> 859 ;
860 [label="gini = 0.0\nsamples = 4\nvalue = [5, 0]"] ;
828 -> 860 ;
861 [label="Meses_Inativo <= 3.5\ngini = 0.482\nsamples = 15\nvalue = [13, 19]"] ;
777 -> 861 ;
862 [label="Valor_Total_Transação <= 1797.5\ngini = 0.5\nsamples = 13\nvalue = [13, 13]"] ;
861 -> 862 ;
863 [label="gini = 0.0\nsamples = 4\nvalue = [0, 7]"] ;
862 -> 863 ;
864 [label="Período_de_relacionamento_com_o_banco <= 32.0\ngini = 0.432\nsamples = 9\nvalue = [13, 6]"] ;
862 -> 864 ;
865 [label="gini = 0.0\nsamples = 2\nvalue = [0, 3]"] ;
864 -> 865 ;
866 [label="Contatos_12_meses <= 1.5\ngini = 0.305\nsamples = 7\nvalue = [13, 3]"] ;
864 -> 866 ;
867 [label="Taxa_média_de_utilização_do_cartão <= 0.091\ngini = 0.5\nsamples = 3\nvalue = [3, 3]"] ;
866 -> 867 ;
868 [label="gini = 0.0\nsamples = 1\nvalue = [3, 0]"] ;
867 -> 868 ;
869 [label="gini = 0.0\nsamples = 2\nvalue = [0, 3]"] ;
867 -> 869 ;
870 [label="gini = 0.0\nsamples = 4\nvalue = [10, 0]"] ;
866 -> 870 ;
871 [label="gini = 0.0\nsamples = 2\nvalue = [0, 6]"] ;
861 -> 871 ;
872 [label="Numero_de_Dependentes <= 0.5\ngini = 0.034\nsamples = 663\nvalue = [19, 1070]"] ;
776 -> 872 ;
873 [label="Limite_de_Crédito <= 4778.0\ngini = 0.096\nsamples = 55\nvalue = [5, 94]"] ;
872 -> 873 ;
874 [label="Limite_Disponível <= 2725.0\ngini = 0.194\nsamples = 25\nvalue = [5, 41]"] ;
873 -> 874 ;
875 [label="gini = 0.0\nsamples = 22\nvalue = [0, 40]"] ;
874 -> 875 ;
876 [label="Idade_do_Cliente <= 45.5\ngini = 0.278\nsamples = 3\nvalue = [5, 1]"] ;
874 -> 876 ;
877 [label="gini = 0.0\nsamples = 1\nvalue = [0, 1]"] ;
876 -> 877 ;
878 [label="gini = 0.0\nsamples = 2\nvalue = [5, 0]"] ;
876 -> 878 ;
879 [label="gini = 0.0\nsamples = 30\nvalue = [0, 53]"] ;
873 -> 879 ;
880 [label="Tipo_de_cartão <= 2.5\ngini = 0.028\nsamples = 608\nvalue = [14, 976]"] ;
872 -> 880 ;
881 [label="Saldo_Total_Rotativo <= 2512.5\ngini = 0.022\nsamples = 563\nvalue = [10, 902]"] ;
880 -> 881 ;
882 [label="Limite_Disponível <= 10750.0\ngini = 0.009\nsamples = 536\nvalue = [4, 862]"] ;
881 -> 882 ;
883 [label="gini = 0.0\nsamples = 441\nvalue = [0, 725]"] ;
882 -> 883 ;
884 [label="Limite_de_Crédito <= 11839.0\ngini = 0.055\nsamples = 95\nvalue = [4, 137]"] ;
882 -> 884 ;
885 [label="gini = 0.0\nsamples = 1\nvalue = [1, 0]"] ;
884 -> 885 ;
886 [label="Saldo_Total_Rotativo <= 1902.5\ngini = 0.042\nsamples = 94\nvalue = [3, 137]"] ;
884 -> 886 ;
887 [label="gini = 0.0\nsamples = 70\nvalue = [0, 110]"] ;
886 -> 887 ;
888 [label="Contagem_Total_de_Transações <= 86.5\ngini = 0.18\nsamples = 24\nvalue = [3, 27]"] ;
886 -> 888 ;
889 [label="Alteração_no_valor_da_transação <= 0.777\ngini = 0.42\nsamples = 10\nvalue = [3, 7]"] ;
888 -> 889 ;
890 [label="gini = 0.0\nsamples = 7\nvalue = [0, 7]"] ;
889 -> 890 ;
891 [label="gini = 0.0\nsamples = 3\nvalue = [3, 0]"] ;
889 -> 891 ;
892 [label="gini = 0.0\nsamples = 14\nvalue = [0, 20]"] ;
888 -> 892 ;
893 [label="Renda_anual <= 4.5\ngini = 0.227\nsamples = 27\nvalue = [6, 40]"] ;
881 -> 893 ;
894 [label="Alteração_no_valor_da_transação <= 0.89\ngini = 0.172\nsamples = 25\nvalue = [4, 38]"] ;
893 -> 894 ;
895 [label="gini = 0.0\nsamples = 20\nvalue = [0, 35]"] ;
894 -> 895 ;
896 [label="Taxa_média_de_utilização_do_cartão <= 0.408\ngini = 0.49\nsamples = 5\nvalue = [4, 3]"] ;
894 -> 896 ;
897 [label="gini = 0.0\nsamples = 2\nvalue = [4, 0]"] ;
896 -> 897 ;
898 [label="gini = 0.0\nsamples = 3\nvalue = [0, 3]"] ;
896 -> 898 ;
899 [label="Valor_Total_Transação <= 6681.0\ngini = 0.5\nsamples = 2\nvalue = [2, 2]"] ;
893 -> 899 ;
900 [label="gini = 0.0\nsamples = 1\nvalue = [0, 2]"] ;
899 -> 900 ;
901 [label="gini = 0.0\nsamples = 1\nvalue = [2, 0]"] ;
899 -> 901 ;
902 [label="Gênero <= 0.5\ngini = 0.097\nsamples = 45\nvalue = [4, 74]"] ;
880 -> 902 ;
903 [label="Valor_Total_Transação <= 6395.0\ngini = 0.169\nsamples = 29\nvalue = [4, 39]"] ;
902 -> 903 ;
904 [label="gini = 0.0\nsamples = 13\nvalue = [0, 19]"] ;
903 -> 904 ;
905 [label="Valor_Total_Transação <= 11195.5\ngini = 0.278\nsamples = 16\nvalue = [4, 20]"] ;
903 -> 905 ;
906 [label="Alteração_no_valor_da_transação <= 0.755\ngini = 0.49\nsamples = 5\nvalue = [4, 3]"] ;
905 -> 906 ;
907 [label="gini = 0.0\nsamples = 2\nvalue = [0, 3]"] ;
906 -> 907 ;
908 [label="gini = 0.0\nsamples = 3\nvalue = [4, 0]"] ;
906 -> 908 ;
909 [label="gini = 0.0\nsamples = 11\nvalue = [0, 17]"] ;
905 -> 909 ;
910 [label="gini = 0.0\nsamples = 16\nvalue = [0, 35]"] ;
902 -> 910 ;
911 [label="Estado_Civil <= 2.5\ngini = 0.358\nsamples = 21\nvalue = [7, 23]"] ;
775 -> 911 ;
912 [label="gini = 0.0\nsamples = 9\nvalue = [0, 12]"] ;
911 -> 912 ;
913 [label="Nível_de_Educação <= 1.0\ngini = 0.475\nsamples = 12\nvalue = [7, 11]"] ;
911 -> 913 ;
914 [label="gini = 0.0\nsamples = 2\nvalue = [2, 0]"] ;
913 -> 914 ;
915 [label="Contagem_Total_de_Transações <= 51.0\ngini = 0.43\nsamples = 10\nvalue = [5, 11]"] ;
913 -> 915 ;
916 [label="gini = 0.0\nsamples = 3\nvalue = [5, 0]"] ;
915 -> 916 ;
917 [label="gini = 0.0\nsamples = 7\nvalue = [0, 11]"] ;
915 -> 917 ;
918 [label="Meses_Inativo <= 3.5\ngini = 0.5\nsamples = 5\nvalue = [5, 5]"] ;
774 -> 918 ;
919 [label="Valor_Total_Transação <= 1110.5\ngini = 0.278\nsamples = 3\nvalue = [1, 5]"] ;
918 -> 919 ;
920 [label="gini = 0.0\nsamples = 1\nvalue = [1, 0]"] ;
919 -> 920 ;
921 [label="gini = 0.0\nsamples = 2\nvalue = [0, 5]"] ;
919 -> 921 ;
922 [label="gini = 0.0\nsamples = 2\nvalue = [4, 0]"] ;
918 -> 922 ;
}